157 50
mehl 3.3874471228045877e-07 2.0648267309297808e-05 0.0008958106627687812 0.0009928373619914055 -0.008571197278797626 0.0075584836304187775 -0.0016695646336302161 -0.374840646982193 0.8576022386550903 0.6341396570205688 0.1701764464378357 -0.1452404409646988 0.10053108632564545 0.04079011455178261 -0.523963987827301 0.1360328197479248 -0.5928105115890503 0.2862868905067444 0.17296388745307922 0.11098920553922653 -0.6174693703651428 -0.02666124887764454 0.045904796570539474 0.3466677665710449 -0.5172260403633118 1.1047207117080688 0.1586170643568039 -0.17486689984798431 0.06802242249250412 -0.3100636303424835 0.13859251141548157 0.3627649247646332 -0.49753639101982117 -0.5407392382621765 -0.29199308156967163 0.5906845331192017 0.6233327388763428 -0.26147836446762085 0.06999050825834274 1.111526370048523 0.29588815569877625 -0.2339971363544464 -0.200173020362854 0.20788902044296265 0.00011273595737293363 -0.3775688409805298 0.00867798738181591 0.4495933949947357 -0.34152042865753174 0.03808380663394928
mal 5.148144168742874e-07 3.3179952879436314e-05 0.0002637518919073045 0.0018245436949655414 -0.00011500649998197332 0.0006570392870344222 -0.0013022538041695952 1.7116999626159668 0.3964817225933075 -0.1517713963985443 0.8724100589752197 -0.883552610874176 -0.6050612926483154 0.35690298676490784 -0.009567067958414555 0.7596215605735779 0.5631381273269653 0.6824192404747009 -0.33905860781669617 0.00923630129545927 0.617964506149292 0.3047635853290558 0.23840291798114777 -0.6131171584129333 -0.7169926166534424 1.0809482336044312 0.18210764229297638 -0.17371676862239838 -0.30824774503707886 -0.2554469406604767 0.4127444624900818 0.020462125539779663 0.5586638450622559 -0.33819571137428284 0.7769714593887329 0.24869531393051147 0.4660378396511078 0.48028722405433655 -0.1922404021024704 0.07468384504318237 -0.1682911515235901 0.3123885691165924 0.5392442941665649 -0.13266567885875702 0.12353473901748657 0.35217204689979553 0.113033227622509 -0.2684357762336731 0.7528793811798096 0.12560491263866425
goethe 4.0243727994493383e-07 7.22197801223956e-05 0.0005356128676794469 -0.0013202273985370994 -0.0008477686787955463 -0.003619955386966467 0.012071841396391392 0.5231260657310486 0.15772727131843567 0.19362567365169525 0.7210560441017151 0.2971952259540558 -0.588323712348938 -0.9572081565856934 -0.14549608528614044 0.7381380200386047 0.849276602268219 -0.6667580604553223 -0.27756282687187195 0.07747083157300949 0.3481093645095825 0.8968396186828613 -0.1233951598405838 0.5857937335968018 -0.2920358180999756 -0.5705178380012512 -0.9741178750991821 0.4703032374382019 -0.3205700218677521 -0.22197940945625305 0.5523722171783447 0.565837025642395 0.36462947726249695 -0.34648820757865906 0.0013720178976655006 -0.20510639250278473 0.7606574296951294 1.1669201850891113 -0.7547747492790222 0.20655067265033722 0.5588616132736206 0.1950051188468933 0.09103527665138245 0.10420685261487961 0.059631966054439545 0.21706490218639374 0.9009992480278015 -0.5115594863891602 0.2001282274723053 0.43505245447158813
göre 9.230098640955475e-08 -8.365580470126588e-06 -0.00022793206153437495 -0.0007311211666092277 -0.00360108376480639 -0.00022047576203476638 0.0025675399228930473 -0.5045089721679688 -0.18305441737174988 0.3512355387210846 0.18575714528560638 -0.4569152593612671 -0.6345411539077759 0.20430533587932587 -0.4886486530303955 0.5113080143928528 -0.22134555876255035 0.1969955414533615 0.02730373479425907 -0.6823807954788208 -0.28076523542404175 0.027177875861525536 0.09477263689041138 0.08716166019439697 -0.21705268323421478 0.17863716185092926 -0.22517256438732147 -0.49805039167404175 0.36627283692359924 -0.11786998808383942 0.35610175132751465 -0.5290769934654236 0.1341215819120407 0.04936343431472778 0.609274685382843 0.3069653809070587 -0.10296887159347534 -0.4256264269351959 0.08298658579587936 0.11742798984050751 -0.2535701394081116 0.42523080110549927 0.3870888352394104 0.40465718507766724 -0.17956551909446716 0.7487451434135437 0.09078647941350937 -0.037693917751312256 0.36016666889190674 0.3482634723186493
bund 4.6780402840340685e-07 9.355580004921649e-06 0.00014282642223406583 -0.001513881259597838 0.001237559481523931 -0.004062964580953121 0.020151032134890556 0.7066488862037659 0.7930974960327148 0.20678456127643585 -0.21098333597183228 -1.1259303092956543 0.18598376214504242 0.6069045066833496 -0.2411210685968399 0.6574118137359619 0.46018514037132263 1.1945148706436157 0.7538734674453735 -0.24035269021987915 0.0402044951915741 -0.12151383608579636 1.0830461978912354 -0.15577632188796997 1.093672275543213 -0.7008752226829529 0.16999825835227966 0.5787485241889954 0.38175728917121887 -0.36590826511383057 -0.25601649284362793 0.08916787803173065 0.025330791249871254 -0.0026172278448939323 0.18091894686222076 0.23933520913124084 -0.2642093896865845 0.016446277499198914 -0.24671615660190582 0.3019924759864807 -0.2845725119113922 0.22741243243217468 0.4421251118183136 0.7200038433074951 -0.5724122524261475 0.547291100025177 -0.11404130607843399 -0.762950599193573 -0.018071690574288368 0.5101459622383118
mund 3.53543754272323e-07 -9.656424481363501e-06 0.0004277318366803229 -0.00014771845599170774 -0.003978514112532139 0.010628263466060162 -0.0007575036725029349 0.2493949681520462 0.28264573216438293 0.7808347344398499 0.8889548778533936 -0.1799473911523819 -0.12194482237100601 0.8341276049613953 -0.8146473169326782 0.2952001988887787 -0.014028986915946007 -0.010638768784701824 0.1713833063840866 -0.7434738278388977 0.20755231380462646 0.44199031591415405 -0.01784094050526619 0.1649373322725296 -0.41002488136291504 0.09807110577821732 -0.19216613471508026 -0.467239111661911 0.4365898370742798 -1.062164545059204 0.7768822312355042 -0.1727169156074524 -0.609992265701294 0.0025548466946929693 0.06001811474561691 -0.018906664103269577 0.975139319896698 0.9386807680130005 -0.5234403610229492 0.40462738275527954 -0.04019058495759964 0.3120817542076111 0.24251772463321686 0.3062101900577545 0.1850041151046753 0.5561834573745728 -0.23457378149032593 -0.32867416739463806 0.7899448275566101 -0.11175946146249771
starkstrom 1.8701584281188843e-07 -3.306947473902255e-05 0.00036873621866106987 3.338338137837127e-05 1.8829665350494906e-05 0.0018892091466113925 0.0045710341073572636 -0.4512105882167816 0.4503073990345001 0.4330507218837738 0.10803627967834473 -0.7241047024726868 -0.2353895902633667 0.04439479112625122 0.25040075182914734 -0.6097213625907898 -0.6130288243293762 -0.5119301676750183 -0.14542117714881897 0.20366171002388 -0.14053769409656525 0.4152354896068573 -0.2900145351886749 0.09175940603017807 -0.1348901093006134 -0.2804911434650421 -0.3390124440193176 0.11205730587244034 0.3019389510154724 -0.39461058378219604 -0.34875190258026123 0.012607536278665066 0.3390967845916748 0.1462312489748001 -0.278536319732666 -0.3880496323108673 -0.4289032220840454 0.6633791327476501 -0.01848769560456276 -0.06931015104055405 -0.45895710587501526 -0.2125118374824524 0.38812944293022156 -0.41146937012672424 0.22299613058567047 0.10569540411233902 0.38499563932418823 -0.07361449301242828 -0.0037601571530103683 0.2636072337627411
symptom 3.1219846619023883e-07 -2.503516043361742e-05 -9.953595872502774e-05 0.0016397355357185006 -0.00322348834015429 0.011975159868597984 0.007668691221624613 0.27751609683036804 -0.096364825963974 -0.14206254482269287 -0.03636588156223297 1.0675688982009888 0.7976601719856262 0.0980665311217308 -0.1545828878879547 0.32198968529701233 0.022305244579911232 -0.10451263189315796 -0.1102433055639267 -0.09989701956510544 -0.09161505103111267 0.3334082067012787 -0.32254403829574585 -0.2571381628513336 -0.10231417417526245 -0.6207558512687683 0.3406713306903839 0.3869420289993286 -0.4282490015029907 0.2180420607328415 0.5921781659126282 0.2127750664949417 0.08576913177967072 0.11055883020162582 0.16090361773967743 -0.5318500399589539 -0.4207213819026947 -0.05071184039115906 -0.1465991884469986 -0.1926007866859436 0.38902145624160767 0.32215040922164917 0.21883562207221985 0.5573018789291382 0.3400617241859436 -0.4784407913684845 0.006529574282467365 0.8490745425224304 -0.010896984487771988 -0.013111796230077744
modern 3.067334830575419e-07 7.54848078940995e-05 -0.0005744381342083216 0.004134124144911766 0.0016257964307442307 -0.0020077726803719997 0.008361589163541794 -0.38137340545654297 1.227862000465393 -0.8794037699699402 0.46833768486976624 0.2662796974182129 -0.22400714457035065 -0.1678895354270935 0.03792215883731842 -0.12411431223154068 -0.197217658162117 -0.1635398268699646 -0.666573703289032 0.30205535888671875 0.7053757905960083 1.0485786199569702 -0.6748013496398926 -0.0036283968947827816 0.6564013957977295 1.0614277124404907 -0.4469018280506134 0.5876624584197998 0.025452036410570145 -0.5857765078544617 0.7624821066856384 0.4948163330554962 0.8833552598953247 0.3541859984397888 -0.03254346922039986 -0.06069290265440941 -0.07673203200101852 0.25379452109336853 0.16494794189929962 0.6126368045806885 0.1610206514596939 0.23853540420532227 0.7912356853485107 0.07598831504583359 0.35457471013069153 0.4269181191921234 0.17148257791996002 -0.110452800989151 0.38086727261543274 0.7555707097053528
ungern 2.683299840100517e-07 3.5090091841993853e-05 0.001321552786976099 -0.0002351098373765126 -0.0012160344049334526 -0.00019603299733716995 -0.0016087719704955816 0.4820607304573059 0.2640027403831482 -0.37200576066970825 -0.33275294303894043 0.0899541974067688 -0.36400240659713745 -0.1346101015806198 -1.0876734256744385 1.0673705339431763 0.11028838157653809 -0.36954328417778015 -0.0516483411192894 -0.007971036247909069 -0.3352208137512207 0.3657763600349426 -0.22915616631507874 0.6656666398048401 -0.15742968022823334 0.22202438116073608 -0.02427171729505062 0.06585632264614105 0.9409793615341187 -0.14715494215488434 0.6825076937675476 0.20475450158119202 0.19627398252487183 -0.2745305895805359 -0.3667026460170746 -0.2883690893650055 0.3792884647846222 -0.3614298403263092 0.17282888293266296 -0.19818304479122162 -0.48301082849502563 -0.5120648741722107 -0.05281401425600052 -0.4857928454875946 -0.3666662871837616 -0.17185010015964508 0.029693517833948135 -0.38910531997680664 0.1380888670682907 -0.5101574063301086
walken 2.519510360343702e-07 3.4234794838994276e-06 0.0004916259786114097 0.0010268865153193474 0.0010117852361872792 0.005478282924741507 -0.0017211864469572902 -0.39470937848091125 0.42884159088134766 0.10421536862850189 0.4482173025608063 -0.06736041605472565 0.3611571490764618 -0.07869277149438858 0.08380302041769028 0.06426892429590225 0.2259984314441681 -0.21036486327648163 0.3340741991996765 -0.37150126695632935 -0.3727003037929535 -0.4517406225204468 -0.4487183690071106 -0.5754886865615845 0.01021084375679493 0.46017342805862427 0.10301254689693451 -0.012662864290177822 0.45473095774650574 -0.3189557194709778 -0.08920422196388245 -0.28090235590934753 0.04952075332403183 -0.5379800796508789 0.05415402725338936 -0.500810444355011 0.4327520430088043 0.6450826525688171 -0.22196659445762634 0.5352323055267334 -0.15487435460090637 -0.3220066428184509 -0.1717568039894104 -0.34826329350471497 0.23357178270816803 0.29745376110076904 0.2602320611476898 -0.13454779982566833 0.8382576107978821 0.15618956089019775
borgen 1.841785888245795e-07 1.1047935913666151e-05 0.00016046175733208656 0.0017376579344272614 -0.003571984823793173 -0.0015339615056291223 0.0008779766503721476 0.3411407470703125 0.15012572705745697 0.26106974482536316 0.4444613754749298 0.15433110296726227 0.1466333568096161 -0.1092195212841034 -0.2925148904323578 0.11667464673519135 -0.1370050013065338 -0.2095174938440323 0.02330264449119568 -0.3243325650691986 0.04547927901148796 0.3633064031600952 0.38637474179267883 -0.12105965614318848 -0.31492534279823303 -0.36713725328445435 0.1705072671175003 -0.3538403809070587 0.05489267036318779 -0.506489098072052 -0.28343793749809265 -0.37631654739379883 -0.0043529001995921135 -0.3902915120124817 -0.07557319104671478 -0.061341434717178345 0.11609551310539246 -0.6124269366264343 0.3173774182796478 -0.09018966555595398 -0.9085738658905029 -0.10607681423425674 0.8553329706192017 0.010827483609318733 0.9167101383209229 -0.4677278399467468 -0.3689117133617401 0.24401257932186127 0.011823458597064018 0.04314423352479935
waten 9.794196387247212e-08 -3.784027649089694e-05 0.00012307526776567101 0.0003863116435240954 -0.003389340126886964 0.008524412289261818 -0.005205368623137474 -0.06452583521604538 0.11989051848649979 -0.5823119282722473 0.6146454811096191 -0.06314171105623245 -0.5027517676353455 0.5055634379386902 0.021317163482308388 0.42188316583633423 -0.03973928838968277 -0.3052902817726135 0.9137746691703796 -0.2049352526664734 -0.5205475091934204 -0.673992931842804 0.11937852948904037 0.5363205671310425 -0.1414782702922821 0.24308151006698608 0.07125020772218704 0.19707781076431274 -0.015774426981806755 0.2246812880039215 -0.15329323709011078 -0.03368033096194267 -0.019375812262296677 -0.1792043298482895 0.15062595903873444 -0.11114087700843811 0.028677966445684433 -0.027091283351182938 -0.2179400771856308 0.3117419183254242 -0.5123974680900574 -0.2964994013309479 -0.009574336931109428 -0.3796895444393158 0.2968081831932068 -0.26266080141067505 -0.2695872485637665 -0.36301282048225403 0.32172077894210815 -0.07037162780761719
schwimmen 3.3649922670520027e-07 2.8015461793984286e-05 0.0005612247041426599 0.0006260823574848473 -0.0036352304741740227 -0.0001436308812117204 -0.005600741133093834 0.5835256576538086 0.634539783000946 0.1362258344888687 0.8714181184768677 -0.14762713015079498 -0.08981489390134811 1.2077760696411133 0.9752957820892334 1.0315446853637695 0.49316731095314026 0.3037970960140228 0.7694513201713562 -0.12958501279354095 -0.1570538878440857 -0.23724225163459778 0.07504730671644211 0.47910812497138977 -0.1872970312833786 0.2935607135295868 0.40764734148979187 0.11690803617238998 -0.3560674786567688 -0.3474036753177643 0.48897141218185425 -0.5938218235969543 -0.39800533652305603 -1.005199670791626 0.21488159894943237 -0.22652184963226318 0.09431824833154678 -0.338277667760849 -0.12106495350599289 0.47519251704216003 0.12356220930814743 0.7374029755592346 -0.004797115921974182 -0.18591567873954773 -0.2502990961074829 1.0941349267959595 0.36105844378471375 -0.31039223074913025 0.8955980539321899 -0.36469388008117676
stimmen 4.14736234688462e-07 1.4318325156637002e-05 0.0005246211658231914 0.0018296876223757863 -0.0002665144274942577 -0.011240432970225811 -0.0027093824464827776 1.6663269996643066 0.7980244159698486 0.5874795317649841 0.9195300340652466 -0.5547718405723572 0.3850952088832855 0.14737588167190552 -0.8842970728874207 0.8352997303009033 0.6305521130561829 1.0924475193023682 -0.5244352221488953 0.20186173915863037 1.5031310319900513 0.2624085247516632 -0.04376896098256111 -0.7132436633110046 0.30143141746520996 -0.7075175046920776 0.6778128147125244 -0.0866689682006836 -0.029591549187898636 -0.13713474571704865 0.19436030089855194 0.8966768980026245 0.35344022512435913 -0.05849091708660126 0.5934413075447083 0.034554339945316315 0.2518797516822815 -0.6809206008911133 -1.0510019063949585 -0.011181369423866272 -0.0407710075378418 -0.6715956926345825 0.6219843626022339 0.8574597239494324 0.20678161084651947 0.12096047401428223 0.18635033071041107 -0.29624009132385254 0.02227306179702282 -0.2787293791770935
hemd 2.9528612799367693e-07 -1.0251653293380514e-05 9.941455209627748e-05 0.0004300555738154799 -0.005289943888783455 0.01918703317642212 0.005336355417966843 -0.209605872631073 -0.05962104722857475 0.5163723230361938 0.4716678559780121 -0.38050881028175354 -0.6321328282356262 0.26212120056152344 -0.20701199769973755 0.5566548109054565 0.015966132283210754 0.409869909286499 -0.10062982141971588 -0.307217001914978 0.37002283334732056 0.3037235736846924 0.18981699645519257 0.1969929039478302 -0.24407824873924255 0.5174599885940552 0.40207988023757935 -0.7329789400100708 0.6084802746772766 -0.31781455874443054 0.0921405777335167 -0.33483749628067017 -0.5142459869384766 -0.4761481285095215 0.42850980162620544 -0.013361675664782524 0.8783440589904785 0.5549019575119019 -0.133453831076622 -0.01732493005692959 -0.21074311435222626 0.32981738448143005 -0.2493324726819992 -0.44232556223869324 -0.3721175789833069 -0.5291177034378052 -0.32063400745391846 0.09782186895608902 0.26779359579086304 0.09188679605722427
held 3.2248877346319205e-07 7.79127876739949e-05 0.0006417988915927708 0.0010401997715234756 0.0006100783357396722 0.0018140814499929547 0.010747651569545269 0.13618502020835876 -0.218722864985466 -0.2403016984462738 0.14854250848293304 -0.42548424005508423 -0.07074002176523209 0.6746656894683838 -0.2220320701599121 0.6843856573104858 0.6249085068702698 -0.5241055488586426 -0.529852032661438 -0.2394697070121765 0.29169824719429016 0.6260210275650024 0.3639284372329712 -0.8019829392433167 0.45713910460472107 0.05590086430311203 -0.2173246592283249 -0.21691523492336273 0.2404889464378357 -0.568386971950531 0.5849915742874146 0.10360418260097504 -0.39686155319213867 0.24476322531700134 -0.1635104864835739 -0.0772235244512558 0.673859715461731 0.8828962445259094 0.005258834455162287 0.28603971004486084 0.037382375448942184 0.2152305692434311 0.01778881438076496 -0.6068154573440552 0.8985211253166199 0.36847490072250366 0.04603320732712746 -0.2297224998474121 0.2827962636947632 0.23035311698913574
kuchen 2.522552051686944e-07 1.3918317165462213e-07 4.7677454858785495e-05 0.000531987170688808 -0.0060127172619104385 0.005949311889708042 -0.0032573111820966005 -0.3299142122268677 0.334724485874176 0.523219108581543 -0.13720883429050446 -0.0637504830956459 -0.11759869009256363 0.042021602392196655 -0.13860705494880676 0.21301427483558655 -0.23994983732700348 0.46910324692726135 0.003911967389285564 -0.7528514266014099 -0.6003922820091248 0.712878942489624 0.32718390226364136 -0.3203120231628418 -0.7096049189567566 0.12682679295539856 -0.1063232347369194 -0.12138251215219498 -0.11054301261901855 0.1359550803899765 0.37095895409584045 -0.13014212250709534 -0.09803243726491928 -0.5000263452529907 -0.021924182772636414 0.09399902820587158 0.4965076446533203 -0.4822561740875244 -0.542752742767334 0.5447033047676086 -0.36307236552238464 -0.2850835919380188 -0.18316563963890076 0.3188975155353546 -0.6186128258705139 -0.050258032977581024 0.17633056640625 0.5535194873809814 0.15124087035655975 -0.1664443016052246
suchen 3.758571267553634e-07 -2.16608041228028e-05 0.0006520642782561481 0.0006007016054354608 -0.0016635890351608396 0.0006347486632876098 -0.00575466500595212 0.6094220280647278 0.2860531508922577 -0.3967006802558899 0.3804400563240051 0.6298784613609314 -0.26293784379959106 0.241486057639122 -0.34709101915359497 1.2873388528823853 0.5717402696609497 -0.27123382687568665 0.5440496802330017 -0.3008219599723816 0.11699480563402176 0.04091479256749153 -0.028849663212895393 -0.1688455492258072 -0.3752153515815735 -0.08762224018573761 -0.17998827993869781 0.4418725371360779 -0.07265105098485947 -0.6052476167678833 0.1303633600473404 -0.024778641760349274 -0.19604411721229553 -0.16173270344734192 0.21841880679130554 -0.19328077137470245 0.6485050916671753 -0.6195678114891052 0.1160503625869751 0.21265406906604767 0.05935445800423622 0.5787542462348938 0.0651702880859375 0.3230256140232086 -0.4324430227279663 -0.2195959836244583 0.1999293863773346 -0.19504380226135254 -0.5020286440849304 -0.18827129900455475
see 4.5963892603140266e-07 8.363843517145142e-05 -0.0010308213531970978 -0.0015408230246976018 -0.00010425061918795109 0.003969983663409948 -0.0036092589143663645 -0.03714126721024513 0.6646324396133423 -0.5960246920585632 1.0592896938323975 -0.48811468482017517 0.6974389553070068 1.3492181301116943 0.19812653958797455 0.7208094596862793 1.212199091911316 0.31018680334091187 -0.10513541102409363 -0.9437751770019531 -0.5537909269332886 0.46721604466438293 0.5708024501800537 -1.0940909385681152 -0.1926805078983307 0.22261691093444824 -0.24041979014873505 1.1678282022476196 -0.7101281881332397 -0.44310563802719116 -0.8645669221878052 1.0814077854156494 -0.6092443466186523 0.028340302407741547 -0.20195011794567108 0.02238377183675766 1.1336301565170288 0.3740856349468231 -0.4259393811225891 0.4065178632736206 0.8322535753250122 0.11407279968261719 0.4711719751358032 -1.112389087677002 0.22295841574668884 -0.08541897684335709 -0.5065701007843018 -0.04794486612081528 0.4815644323825836 0.2147810459136963
tee 3.2776452485450136e-07 1.5708777937106788e-05 -4.272061778465286e-05 0.0014239121228456497 -0.004219235386699438 0.005178093444555998 0.0006402179133147001 -0.03571191057562828 0.3740222156047821 0.6581319570541382 -0.3482629954814911 -0.7441596388816833 -0.26542115211486816 0.4293050467967987 -0.2571525573730469 0.28447896242141724 -0.39623337984085083 0.09305467456579208 0.8046669960021973 -0.024750394746661186 -0.7701603174209595 0.5788107514381409 0.050669994205236435 -0.37647363543510437 -0.5267377495765686 0.1443057805299759 -0.16214218735694885 0.03593335673213005 0.11291857808828354 -0.14094841480255127 0.012783211655914783 0.09826300293207169 -0.16906343400478363 -0.6345883011817932 0.08429254591464996 0.30121633410453796 0.6876618266105652 0.009801431559026241 -0.9815848469734192 0.31375929713249207 0.051721956580877304 0.5227179527282715 0.28786852955818176 0.08970467001199722 -0.2722621262073517 -0.6041826605796814 -0.054794710129499435 -0.24511131644248962 -0.19772644340991974 -0.48033612966537476
bit 3.766917870962061e-07 2.548049224060378e-06 -0.0010733313392847776 0.002870497526600957 -0.0010182809783145785 0.004624236840754747 0.0029859975911676884 0.004655751399695873 0.9336252808570862 0.5552683472633362 0.22656020522117615 -1.3539505004882812 1.9416152238845825 -0.45009729266166687 0.1420198231935501 -0.28742092847824097 0.19191792607307434 1.1957848072052002 -0.4403028190135956 -0.1754474937915802 0.38505667448043823 0.15014949440956116 -0.09912499785423279 -0.10088634490966797 -0.30472949147224426 0.13880285620689392 -0.7220679521560669 -0.3757390081882477 -0.4635333716869354 -0.48654496669769287 0.18876755237579346 0.46648919582366943 0.8986842036247253 1.2874904870986938 0.4793843924999237 -0.0736437663435936 -0.8069233298301697 -0.1865915209054947 0.26260897517204285 -0.05263660103082657 -0.43715423345565796 0.20063278079032898 0.7534646391868591 -0.13479909300804138 0.16017983853816986 -0.3002672493457794 0.23830531537532806 0.1421968638896942 -0.12259926646947861 -0.4556044638156891
boot 3.708783538058924e-07 2.7572354156291112e-05 -7.756540435366333e-05 0.001264524064026773 -0.0020064690615981817 0.00760205602273345 0.005487740505486727 0.3877936005592346 0.03512552008032799 -0.3358784019947052 1.2070858478546143 -0.8752297163009644 -0.4552674889564514 -0.14403598010540009 0.8146657347679138 0.29703888297080994 0.39597973227500916 0.44122278690338135 0.27206364274024963 0.19432465732097626 -0.6927652955055237 -0.22554340958595276 0.15579509735107422 -0.38085421919822693 -0.8768976926803589 -0.40502724051475525 0.9874967932701111 0.20008499920368195 0.025877121835947037 -0.840416431427002 -0.06584752351045609 0.15265855193138123 -1.0960766077041626 0.5090629458427429 0.010080506093800068 -0.7243672609329224 1.7434849739074707 0.43351253867149353 0.391940712928772 -0.002313181757926941 0.010872665792703629 0.5373902320861816 -0.1506929099559784 -0.40357303619384766 0.20610153675079346 -0.0927840992808342 -0.25445878505706787 0.226661816239357 -0.2892690896987915 0.29921695590019226
kragen 3.190912138961721e-07 -3.183073567925021e-05 0.000192196574062109 0.0017315419390797615 -0.001119165332056582 0.010821779258549213 -0.004729114007204771 -0.812026858329773 0.2982516288757324 0.5148992538452148 0.6467493176460266 -0.9091513156890869 -0.3060067892074585 0.19341157376766205 0.3021256923675537 0.1554054170846939 0.2006210833787918 0.42707961797714233 -1.051897644996643 0.03952094912528992 0.4883333742618561 0.3223499655723572 0.307897686958313 0.732744038105011 -0.19152288138866425 0.3984377980232239 0.3247115910053253 -0.1856786608695984 0.8244624137878418 0.016461126506328583 0.3033822476863861 -0.1967262476682663 -0.24444276094436646 -0.5605088472366333 -0.24013634026050568 -0.2080940157175064 0.4691212475299835 0.3617904484272003 0.20326994359493256 0.40147101879119873 -0.3258887529373169 0.007153109181672335 -0.29677727818489075 -0.06871094554662704 -0.4566201865673065 0.2582349479198456 -0.40647655725479126 0.013582239858806133 -0.1990666538476944 -0.8343673944473267
fragen 4.0765206676951493e-07 -5.29345816175919e-05 0.0008154444512911141 0.0008353013545274734 0.001082763192243874 -0.009257953613996506 0.005657663103193045 1.1314505338668823 0.878578245639801 -0.06547000259160995 0.7377601861953735 0.4458414614200592 0.7528998255729675 0.48447614908218384 -0.4383784532546997 0.9624304175376892 0.3160634934902191 0.1192554235458374 0.21872611343860626 0.09003348648548126 0.8228719234466553 0.20946665108203888 -0.6979780793190002 -0.37265539169311523 0.15253905951976776 -0.8300824165344238 -0.6219727396965027 0.02955138497054577 0.23397168517112732 -0.5183357000350952 0.05598577484488487 0.9330482482910156 -0.039238546043634415 -0.2021353542804718 0.27619099617004395 -0.23307783901691437 0.13954490423202515 0.2983129620552063 -0.6666913628578186 0.4376903474330902 -0.37271633744239807 0.8391013145446777 0.09561490267515182 0.4180126190185547 -0.822413980960846 0.316194623708725 0.06079116463661194 0.17325620353221893 0.1950235217809677 0.05969167500734329
tastatur 3.18874612048603e-07 -4.489149432629347e-05 -0.00018017589172814041 0.0016774790128692985 -0.005550057161599398 0.0020035277120769024 0.0020772216375917196 0.11184361577033997 0.16427849233150482 0.3878500759601593 0.821307897567749 -0.8916771411895752 0.7128129601478577 -0.35934093594551086 0.3096839487552643 -0.21999996900558472 -0.027805691584944725 0.8812673091888428 0.3218183219432831 -0.4068916141986847 0.5702007412910461 -0.7043254971504211 -0.17522643506526947 0.36942148208618164 -0.17581719160079956 0.031095905229449272 -0.09353605657815933 -0.3685203790664673 0.24772748351097107 -0.1802728921175003 0.4445993900299072 0.10713142901659012 0.369663268327713 -0.09205763787031174 -0.059621281921863556 -0.1943945437669754 0.4692310690879822 -0.05013548955321312 -0.3161110579967499 0.3828895092010498 -0.8301212191581726 -0.37492796778678894 0.8474785685539246 0.8710752725601196 -0.630919337272644 0.032441820949316025 -0.21459759771823883 -0.5425624847412109 0.08606961369514465 0.2415873259305954
agentur 3.0370517833944177e-07 3.8591097109019756e-05 -3.871497028740123e-05 0.0010435229633003473 -0.0004999375087209046 -0.014231124892830849 0.016104325652122498 0.3871878683567047 0.20256564021110535 -0.2621079683303833 0.3663006126880646 0.02131173200905323 -0.035967834293842316 -0.27089202404022217 0.20335166156291962 0.4117627441883087 -0.635621190071106 1.0224169492721558 1.234170913696289 -0.6029975414276123 0.5805878043174744 -0.5041980147361755 0.2960704267024994 0.553961455821991 -0.26076725125312805 -0.15981006622314453 -0.6203714609146118 0.450848788022995 -0.14281189441680908 -0.9764814972877502 -0.3347959518432617 -0.23904840648174286 0.48533764481544495 0.16673845052719116 -0.7625342607498169 -0.0762532651424408 -0.045345842838287354 0.6852196455001831 0.25672847032546997 0.436625212430954 0.31705865263938904 0.03759513050317764 0.49110209941864014 0.4330306053161621 0.42146584391593933 -0.5406901240348816 0.782608151435852 -0.30175307393074036 0.0685378760099411 0.6560822129249573
zutaten 3.4367107559774013e-07 -8.556733519071713e-05 0.00014805201499257237 0.0013692241627722979 -0.006300558801740408 0.0011596481781452894 -0.0002438023657305166 -0.16615238785743713 0.41725993156433105 0.8471160531044006 -0.8310499787330627 -0.009127039462327957 0.09532773494720459 -0.11021242290735245 0.23959912359714508 0.508521318435669 -0.28922736644744873 0.47634920477867126 -0.10416700690984726 -0.19650809466838837 -0.37330198287963867 -0.1690015345811844 -0.27334436774253845 -0.40010833740234375 -0.47695714235305786 0.768405556678772 -0.001818212098442018 -0.22373521327972412 -0.30420950055122375 -0.11598584055900574 0.3779388964176178 0.743025541305542 -0.23823462426662445 -0.45139381289482117 -0.1769896298646927 -0.035560544580221176 0.7700513005256653 0.0027131058741360903 -0.03858733922243118 0.40404608845710754 -0.691464900970459 -0.16997243463993073 -0.1607200652360916 0.0748724639415741 -0.39362427592277527 -0.3204241693019867 -0.5527816414833069 0.6034234166145325 -0.28126922249794006 -0.8408247828483582
flughafen 3.256979823618167e-07 6.722039688611403e-05 -0.0015392991481348872 -0.00045509979827329516 0.00156266032718122 -0.001176345394924283 -0.0029832550790160894 1.4522029161453247 0.49167001247406006 -0.7355634570121765 0.03533599525690079 -1.1203802824020386 0.01719389669597149 0.5629589557647705 1.1741231679916382 -0.2656826376914978 0.4838600754737854 -0.2781103551387787 1.101521372795105 0.4413895905017853 0.32758644223213196 -0.1125018373131752 -0.2296682894229889 -0.26254069805145264 -0.5520024299621582 -0.8179816007614136 -0.5958794951438904 -0.48407500982284546 -0.449812650680542 -0.15546758472919464 0.00022347690537571907 0.6067498326301575 1.3213695287704468 0.060709163546562195 -0.7758458852767944 -0.13162432610988617 0.7565730214118958 0.7010089755058289 0.07572218030691147 0.6068035364151001 -0.14197541773319244 -0.8717549443244934 0.13793864846229553 0.675962507724762 -0.28351014852523804 0.1894056648015976 0.47972023487091064 0.22999759018421173 -0.09169048070907593 0.09292785823345184
bühnen 3.681692248846957e-07 -9.188033800455742e-06 0.000868936360348016 -0.0003695078776217997 0.0012433250667527318 -0.008371083065867424 0.00863609742373228 -0.07282377779483795 1.2641521692276 0.03200473263859749 0.4118921160697937 -0.0059430282562971115 -1.5220521688461304 -0.2447907030582428 0.525226354598999 0.19035761058330536 0.28415095806121826 0.07687029242515564 -0.048910535871982574 -0.16931898891925812 0.41206294298171997 0.8291741013526917 -0.5918795466423035 -0.025832610204815865 -0.3717949390411377 0.5451712608337402 -0.20667031407356262 0.92596834897995 -0.7226167321205139 -0.33037278056144714 -0.11594165861606598 0.10170399397611618 1.2926428318023682 -0.4564831852912903 0.06400567293167114 -0.6093600392341614 0.48214635252952576 0.5985374450683594 -0.12092382460832596 0.6260412931442261 0.04395083710551262 0.3648480772972107 0.6028494834899902 -0.17129819095134735 0.20060205459594727 -0.8577231168746948 0.36730626225471497 0.025953738018870354 0.307280570268631 0.8413177132606506
grünen 4.4893158701597713e-07 -2.7435726224211976e-07 0.000722125347238034 -0.001355340820737183 -0.0017539339605718851 -0.002608909970149398 -0.0012575628934428096 -0.45511865615844727 0.1859586387872696 0.7443534731864929 0.9303853511810303 -0.7872120141983032 -0.44843339920043945 1.005316972732544 0.027565931901335716 0.9687342643737793 0.02283380925655365 1.5109416246414185 -0.2235039323568344 -0.008010784164071083 0.6419020891189575 0.4952305555343628 0.330713152885437 0.7490586638450623 0.6361048221588135 -0.2611920237541199 0.6637824773788452 0.18765351176261902 0.02848459966480732 -0.7263343930244446 0.29366159439086914 1.0963573455810547 0.6747795343399048 0.4339621067047119 0.891727089881897 0.35194459557533264 0.5500251650810242 -0.0025223547127097845 -0.42512091994285583 0.20477549731731415 0.15691234171390533 0.5105316638946533 0.7223570346832275 0.3695312738418579 -0.5342331528663635 0.16482150554656982 -0.030275734141469002 -0.9413400888442993 -0.6756439805030823 -0.29145491123199463
recht 5.018609385842865e-07 -3.476656274870038e-05 0.00043347326572984457 0.000627771660219878 -0.0037335956003516912 0.002151257125660777 0.011414778418838978 1.578179955482483 0.7790075540542603 -0.4062129557132721 0.5269909501075745 0.581415593624115 0.4652155935764313 0.5845243334770203 -0.6666351556777954 0.6767699122428894 0.3281348645687103 0.7775580883026123 -0.3064408600330353 0.19120687246322632 0.8048336505889893 0.17511014640331268 -0.11353493481874466 0.4687294363975525 0.18633024394512177 -0.18765266239643097 0.31321749091148376 0.15965595841407776 0.10032474994659424 -0.1997630000114441 0.647761881351471 0.6749035120010376 0.34543630480766296 0.15888331830501556 -0.46029362082481384 -0.02052217535674572 0.11523468047380447 1.1104795932769775 -0.4961884915828705 0.3445020914077759 -0.15230430662631989 0.18265381455421448 0.43837693333625793 0.7195864915847778 -0.10251818597316742 -0.14025726914405823 -0.7448127269744873 -0.2876748740673065 0.7673314809799194 0.17937402427196503
nacht 4.41298993791861e-07 4.6071359975030646e-05 4.656318560591899e-05 0.0009771233890205622 -0.002436064649373293 4.585122223943472e-05 0.0009577473974786699 0.22842752933502197 -0.26876622438430786 0.1764972060918808 1.8865439891815186 -0.2655668258666992 -0.9759052991867065 0.6492464542388916 0.0950927883386612 1.2962669134140015 1.1631083488464355 -0.7577961683273315 -0.4654574692249298 -0.4783889353275299 0.034243833273649216 0.3134472966194153 0.1488170325756073 -0.897208571434021 -0.7884639501571655 0.07284437865018845 0.05541689321398735 -0.1787308156490326 -0.5370923280715942 -0.19894272089004517 0.07353416830301285 0.17536596953868866 -0.11354000866413116 0.6208729147911072 0.013529106974601746 -0.9894758462905884 0.33351269364356995 0.3897419571876526 0.1539166122674942 0.29312190413475037 0.15286484360694885 0.8338943123817444 0.06832247972488403 -0.19495771825313568 0.7982166409492493 0.019730838015675545 0.26741236448287964 -0.25507858395576477 -0.49043208360671997 0.07681550830602646
schal 2.481564820300264e-07 -1.934623287525028e-05 -6.69556757202372e-05 0.0002970806963276118 -0.0038294801488518715 0.01068961527198553 -0.0016514313174411654 -0.6293715238571167 -0.33589860796928406 0.14883285760879517 -0.129537433385849 -0.3542831242084503 -0.42004409432411194 0.29780393838882446 0.0214732363820076 0.22996921837329865 -0.3846035599708557 -0.13323244452476501 0.08854787796735764 -0.06454422324895859 0.16038289666175842 0.7331691384315491 0.01425255462527275 0.2872295677661896 -0.48225849866867065 -0.09674222022294998 -0.12257857620716095 -0.4573262333869934 0.5046910643577576 -0.30853506922721863 -0.029453640803694725 -0.3899227976799011 0.12452775239944458 -0.12974907457828522 0.020007703453302383 0.13545957207679749 0.23332834243774414 -0.08591686189174652 0.014154012314975262 0.19618737697601318 0.08952513337135315 0.05835728347301483 -0.29709625244140625 -0.3080200254917145 -0.42468148469924927 -0.007197578903287649 -0.25191304087638855 -0.2747360169887543 -0.057985156774520874 0.11778921633958817
saal 3.365061616023013e-07 1.8291006199433468e-05 -0.000439549534348771 -0.0018451032228767872 0.0006487470236606896 0.0017845878610387444 0.0005058180540800095 -0.07421136647462845 0.06071395054459572 0.7735042572021484 0.20302821695804596 -0.3960014879703522 -0.7640426754951477 -0.7429189682006836 0.3825986087322235 0.07220035791397095 0.7818624377250671 0.3344458043575287 -0.3818330466747284 0.09792833775281906 0.8492560386657715 0.3622479736804962 -0.1957937479019165 -0.480359822511673 0.37230145931243896 0.20717324316501617 -0.6336357593536377 1.1504919528961182 0.06373827904462814 -0.41486403346061707 0.44670894742012024 -0.6357718706130981 0.5966674089431763 0.179396852850914 -0.14978232979774475 0.3638457953929901 0.000703115772921592 0.1426696926355362 0.0671362355351448 0.20537030696868896 0.16343234479427338 0.3682616651058197 -0.4147947430610657 -0.2515535354614258 -0.01666390523314476 0.2499544322490692 -0.06064939498901367 -0.02546372264623642 0.3500003516674042 -0.3716709315776825
segeln 2.448002760502277e-07 4.1171355405822396e-05 0.0005233469419181347 0.0013544353423640132 -0.0002073629293590784 0.006208623759448528 -0.0068023186177015305 0.1964852660894394 0.7453121542930603 0.5047572255134583 0.9579911231994629 -0.24545250833034515 -0.005053030792623758 0.544160783290863 0.8256075382232666 0.5749503970146179 0.4172373414039612 0.05853833630681038 0.9279168844223022 0.08391410112380981 0.03692498430609703 -0.14793360233306885 0.24701856076717377 -0.10738053172826767 -0.2715793251991272 0.25379273295402527 0.31748977303504944 -0.219308003783226 0.19017045199871063 -0.30736836791038513 0.2702461779117584 -0.09205415844917297 -0.6016614437103271 -0.6413252353668213 0.025145815685391426 -0.3735113739967346 0.14929430186748505 -0.33983972668647766 0.07332363724708557 0.4192499816417694 -0.16826796531677246 0.664956271648407 -0.5518252849578857 -0.8076765537261963 -0.637433648109436 0.006934420671314001 0.40733176469802856 -0.2099379003047943 0.4665982127189636 -0.08845704793930054
regeln 3.980094618327712e-07 -6.890024087624624e-05 0.0002715687733143568 0.002166278660297394 0.0024776665959507227 -0.0073135895654559135 0.006337957456707954 1.0716832876205444 0.579344630241394 -0.18852470815181732 -0.015254915691912174 0.1309632658958435 0.9391053318977356 -0.24829798936843872 -0.12895461916923523 0.5939610600471497 0.6004661917686462 0.4603969156742096 0.4499387741088867 -0.052440233528614044 0.7480295896530151 -0.2299482673406601 0.24714824557304382 -0.21712815761566162 -0.454601526260376 -0.6296153664588928 0.13237430155277252 0.1984872817993164 -0.34342166781425476 0.036567848175764084 0.9208980202674866 0.20465633273124695 -0.17427660524845123 0.06045830622315407 0.1378878355026245 0.17174826562404633 0.2583569884300232 0.48083406686782837 -0.3976110517978668 0.17034688591957092 -0.4914153516292572 -0.018800251185894012 -0.22879911959171295 0.3729340136051178 -0.03974050283432007 0.4056756794452667 -0.019263701513409615 -0.21309152245521545 0.10459927469491959 0.009602967649698257
prozessor 3.0410319595830515e-07 -1.4854278560960665e-05 -0.0006692385650239885 0.0019629886373877525 -0.0005494974320754409 0.00987237598747015 -0.0006616738392040133 0.4425082802772522 0.16990090906620026 0.4757518172264099 -0.08180109411478043 -1.1007392406463623 1.3203480243682861 -0.4914233982563019 0.29301923513412476 -0.274450421333313 -0.562340497970581 0.7756152749061584 0.06123397499322891 0.5568068027496338 1.103209137916565 0.19073835015296936 0.031192241236567497 -0.027160456404089928 -0.38350191712379456 -0.020445354282855988 -0.401347279548645 0.07113485038280487 -0.0843271017074585 0.14740929007530212 -0.10077741742134094 -0.16786623001098633 0.06357194483280182 0.692933201789856 0.38381364941596985 0.23412679135799408 0.09018853306770325 0.13773396611213684 0.12845219671726227 -0.29665693640708923 -0.30817726254463196 0.35608401894569397 0.1058102622628212 0.04245742782950401 -0.07224778085947037 -0.18798227608203888 -0.06873935461044312 0.27328523993492126 -0.6663343906402588 -0.05635913088917732
professor 4.6914678364373685e-07 0.000133861496578902 0.0014968536561354995 0.000354866060661152 0.0042087603360414505 -0.003096208907663822 0.013509251177310944 0.5690408945083618 0.4321085810661316 -0.2990301251411438 0.20139871537685394 -0.2965143918991089 0.17733709514141083 -0.24469351768493652 0.3005257248878479 -0.8728054761886597 0.3684249818325043 -0.24015876650810242 -0.19648680090904236 -0.5257742404937744 0.8885273337364197 0.4881921112537384 -1.2982851266860962 0.25998854637145996 -0.04366295412182808 -0.1391981840133667 -0.7621456980705261 0.35415899753570557 -0.13403300940990448 -0.6300893425941467 1.3347477912902832 0.15208232402801514 -0.34021589159965515 -0.46895933151245117 0.47161349654197693 0.7303988933563232 0.8632627725601196 0.680101752281189 -0.5165306925773621 0.40508833527565 0.32194292545318604 0.09877968579530716 0.3698576092720032 -0.44630342721939087 0.46167832612991333 -0.0004944588290527463 0.14510932564735413 0.40252238512039185 0.4957595765590668 0.09794814139604568
küste 4.1725334654074686e-07 3.362633833603468e-06 -0.000517793872859329 0.00022237894881982356 0.000462896132376045 -0.008816195651888847 -0.009466388262808323 0.5242249965667725 -0.682236909866333 -0.7522132396697998 0.3234957158565521 -0.06896456331014633 -0.4580402970314026 1.2749239206314087 0.43258029222488403 0.35513001680374146 0.6942875981330872 -0.5849148631095886 -0.18597614765167236 0.979780912399292 -0.9903069734573364 0.0026214076206088066 0.3444307744503021 -0.113625168800354 -0.2981831133365631 -0.3082576394081116 0.011968941427767277 0.4834778606891632 -0.4783785343170166 -0.36940261721611023 -0.7277400493621826 0.5803735256195068 -0.32796454429626465 -0.06111741065979004 -0.3069230020046234 -0.2663147747516632 1.4504163265228271 0.008089459501206875 -0.10971171408891678 0.40965506434440613 0.2690981924533844 -0.6193239688873291 0.5942098498344421 -0.7025077939033508 0.025850145146250725 -0.8731600642204285 0.4608917832374573 0.4179346561431885 0.14680562913417816 0.5695252418518066
brüste 2.880662464121997e-07 -8.34267120808363e-05 -8.374810931854881e-06 0.001376439118757844 -0.005366869270801544 -0.00428700540214777 -0.007701740134507418 -0.1184738427400589 -0.2943846583366394 0.1721406877040863 0.39319321513175964 0.12388263642787933 -0.4330846965312958 0.2866654098033905 -0.3859732151031494 0.40271443128585815 -0.21190200746059418 0.14800895750522614 -0.514684796333313 -1.0310356616973877 -0.24294959008693695 0.17604218423366547 -0.11504212766885757 0.24683430790901184 0.07722609490156174 -0.08724351227283478 0.0026362959761172533 0.14308218657970428 0.3463837802410126 -0.43011054396629333 0.16533471643924713 -0.3382333815097809 -0.13074366748332977 0.1974361389875412 0.1412278264760971 0.08929042518138885 -0.18080128729343414 0.35897332429885864 -0.24533581733703613 0.2932119369506836 -0.08518005162477493 -0.08841647952795029 -0.2832827568054199 -0.26513898372650146 0.4742051064968109 0.3153243958950043 -0.0019031582633033395 0.44285455346107483 0.4592393636703491 -0.034437086433172226
konzerte 3.407612041428365e-07 -1.078472996596247e-05 4.305589754949324e-05 0.0008309724507853389 0.0009200326167047024 -0.010147481225430965 0.002492113970220089 0.49042367935180664 1.373142957687378 -0.21002347767353058 0.274191290140152 0.12125105410814285 -0.9671949148178101 -0.8693101406097412 0.7189207673072815 0.29977336525917053 1.2767635583877563 0.021042509004473686 -0.34826889634132385 -0.13159418106079102 0.5937795042991638 -0.049860551953315735 -0.827896237373352 -1.118341088294983 0.2018652856349945 0.808047354221344 -0.4794310927391052 0.41345879435539246 -1.2376573085784912 -0.480442613363266 -0.056909747421741486 -0.025496626272797585 0.7206544876098633 -0.17754937708377838 0.7144774198532104 -0.181977778673172 -0.26373109221458435 0.27828648686408997 -0.6756105422973633 0.2269514501094818 0.7647467851638794 0.7853360176086426 0.27487581968307495 0.09977015107870102 -0.26770803332328796 -0.4583316743373871 0.14913731813430786 -0.17181426286697388 0.1254665106534958 0.7434505820274353
fährte 2.6132875063922256e-07 -2.3838792913011275e-05 7.915049354778603e-05 0.001401444897055626 -0.002566757146269083 0.00044719508150592446 0.008289964869618416 -0.46377620100975037 -0.6229019165039062 -0.049257632344961166 0.7530229687690735 0.09842431545257568 0.18482163548469543 0.5073903799057007 -0.026285775005817413 0.3153853118419647 0.13164204359054565 -0.5865958333015442 -0.5205429792404175 -0.2924579083919525 -0.25753575563430786 0.28535184264183044 0.3951084315776825 -0.3131466209888458 -0.7950466871261597 0.4576270282268524 0.4078911244869232 -0.35851094126701355 0.34496113657951355 -0.1980907917022705 -0.3634817898273468 -0.9490790963172913 -0.5303651094436646 -0.47862768173217773 0.1608296036720276 -0.4471276104450226 0.18246924877166748 0.2940947115421295 -0.07981805503368378 -0.05739980563521385 0.3526841700077057 0.11476436257362366 -0.21696940064430237 -0.5584341287612915 0.0036945492029190063 -0.15674899518489838 0.02318660356104374 -0.04707881435751915 -0.33053284883499146 -0.08827310055494308
batterie 3.55161347442845e-07 -1.967136086022947e-06 -0.0007591348839923739 0.0009943131590262055 -0.004133679438382387 0.000482755625853315 -0.0006610006093978882 0.45852094888687134 -0.4419563412666321 0.7311317920684814 0.8953027725219727 -1.4908987283706665 0.30334919691085815 -0.354816198348999 0.3782249689102173 -0.7141432762145996 -0.13426926732063293 0.1952546387910843 -0.006106469314545393 0.12341499328613281 -0.3126921057701111 -0.21154679358005524 0.316118061542511 -0.6100821495056152 -0.5787224769592285 -0.21722565591335297 0.4235467314720154 0.11508327722549438 0.22108899056911469 -0.6299986243247986 -0.30857986211776733 -0.36662694811820984 -0.25117868185043335 0.26304885745048523 0.003040656913071871 -0.09548750519752502 0.23829567432403564 -0.5017455816268921 0.0630621463060379 -0.01193936262279749 0.7008760571479797 0.34870290756225586 0.013188688084483147 -0.40398597717285156 0.6434483528137207 0.1801893562078476 0.22805532813072205 0.14152392745018005 -0.5502375960350037 0.5621224045753479
fantasie 2.847824873697391e-07 -3.483600448817015e-05 -3.60520753019955e-05 0.0010502964723855257 -0.003016164293512702 2.0568377294694073e-06 0.0028031286783516407 0.22586078941822052 0.06472045183181763 0.6237643957138062 0.5219250917434692 0.8817151188850403 -0.1760735958814621 -0.22925697267055511 -0.28128090500831604 0.17921604216098785 -0.06567053496837616 -0.43752777576446533 -0.30126553773880005 -0.17454934120178223 0.6657291650772095 0.5909448266029358 -0.3257479965686798 -0.7860851287841797 0.21821779012680054 0.18972457945346832 -0.7855433821678162 0.124900683760643 -0.3632016181945801 0.18423782289028168 -0.017803145572543144 -0.2660714089870453 -0.7781441807746887 0.09106887876987457 0.0409226268529892 -0.9098560810089111 0.24456937611103058 0.1739785224199295 -0.7043989896774292 0.017658965662121773 0.23889607191085815 -0.4482763111591339 -0.011171073652803898 -0.5295589566230774 0.22020429372787476 0.003028517123311758 -0.17333993315696716 -0.6084886789321899 0.6773525476455688 0.6407114267349243
wähler 3.567594148989883e-07 -6.38747633274761e-06 0.0007092579617165029 -0.0006398047553375363 -0.0024987158831208944 -0.009353785775601864 0.00014764940715394914 0.6780368089675903 0.7869219183921814 -0.2396417111158371 0.084340900182724 -0.26266762614250183 0.8842130303382874 0.48996493220329285 -0.8033714294433594 0.38712432980537415 0.8751682043075562 1.336347222328186 0.16201481223106384 -0.38673165440559387 0.5177887082099915 0.2904859185218811 0.6836951971054077 -0.2900260388851166 0.7415761351585388 -0.9464284777641296 0.4492270350456238 -0.1743590384721756 -0.18565331399440765 -0.5826691389083862 -0.2059200257062912 0.6565595865249634 0.42942574620246887 0.18487036228179932 0.2109811007976532 0.42297253012657166 0.4778293967247009 -0.5078984498977661 -0.00970776192843914 0.029717419296503067 0.01723974198102951 -0.3338642716407776 -0.041819799691438675 1.0403313636779785 -0.2808188498020172 0.3360796868801117 0.057897455990314484 -0.4843660295009613 0.18981438875198364 0.2710738480091095
wälder 3.786942102124158e-07 -4.535407788353041e-05 -1.1542912034201436e-05 -0.000482716946862638 -0.001969090197235346 -0.007692031096667051 -0.006533017382025719 0.12016419321298599 0.3727986812591553 0.3027879297733307 0.20949332416057587 0.6830267310142517 -0.32375991344451904 1.1348638534545898 -0.5992385149002075 0.07513482123613358 0.9885385632514954 -0.03585338220000267 -0.35893306136131287 0.21387189626693726 -1.0428798198699951 0.5067266225814819 -0.11521483957767487 -0.27663862705230713 0.033560607582330704 0.1135043278336525 0.19271157681941986 0.9529482126235962 -0.16308623552322388 -0.13601699471473694 -1.2139089107513428 0.1925613433122635 -0.7792959809303284 0.1931043565273285 -0.36066144704818726 -0.0381062850356102 -0.30389854311943054 -0.11773968487977982 -0.4835013747215271 -0.017843123525381088 0.6527509689331055 0.24987822771072388 0.3944546580314636 0.051333263516426086 -0.20883075892925262 -0.7476412653923035 0.4420934319496155 -0.7742281556129456 -0.3591765761375427 0.03225434571504593
verwaltung 4.63270737327548e-07 -8.722440725250635e-06 -0.0003434738900978118 -0.0010531912557780743 0.003863755613565445 -0.014700368978083134 0.00753100635483861 1.706688642501831 0.38926002383232117 -0.28893426060676575 -0.44633230566978455 -0.024102449417114258 0.8081064224243164 -0.032218314707279205 -0.4786587357521057 -0.21138650178909302 0.34927982091903687 1.2236279249191284 0.03634071722626686 0.1397150307893753 0.4161394536495209 0.033289097249507904 -0.14082461595535278 -0.40043607354164124 0.10353539139032364 -0.904309868812561 0.22424151003360748 1.2271987199783325 0.6990330815315247 -0.8867200016975403 0.0626799538731575 0.5516510605812073 0.422356516122818 -0.2854290008544922 -0.5595060586929321 0.2075522243976593 1.053639531135559 0.23652085661888123 -0.004366765264421701 0.8162862062454224 -0.3586261570453644 -0.1960027515888214 0.375057190656662 0.037171706557273865 -0.5156194567680359 -0.6825110912322998 0.1636509746313095 -0.007576032541692257 -0.3222227394580841 0.27615875005722046
vergeltung 3.129533752144198e-07 9.039649739861488e-06 0.00022004004858899862 0.002312681870535016 -0.0013058909680694342 3.061743336729705e-05 0.0027002820279449224 0.22006011009216309 -0.5140111446380615 -0.39513909816741943 0.8233158588409424 -0.04057551175355911 -0.1794634908437729 0.2476573884487152 -0.12012746185064316 0.3333858549594879 0.0807056576013565 -1.1340152025222778 -0.3531666398048401 -0.4353046417236328 0.09919454902410507 0.23399797081947327 0.43038538098335266 -1.368522047996521 -0.05115962028503418 -0.23554638028144836 0.7504275441169739 -0.11072756350040436 0.5080307126045227 -0.26652035117149353 0.0914091095328331 0.534672737121582 0.15510332584381104 0.49574965238571167 -0.5461265444755554 -0.21655108034610748 -0.030295146629214287 0.2948160171508789 -0.20739032328128815 -0.37336695194244385 -0.519080638885498 0.17365190386772156 -0.041759341955184937 0.028481246903538704 0.8186994791030884 0.33270618319511414 0.09672066569328308 -0.09371388703584671 -0.21634498238563538 0.3189575970172882
brei 2.386321966696414e-07 -8.531890671292786e-06 0.0004304971662349999 0.00023206471814773977 -0.0049984329380095005 0.010602990165352821 -0.0029734349809587 -0.22858473658561707 0.22552433609962463 0.7012933492660522 -0.23188641667366028 -0.5547861456871033 -0.1568835973739624 0.21244016289710999 -0.6292008757591248 0.15569142997264862 -0.7158194184303284 -0.4548056125640869 -0.05290884152054787 -0.18586495518684387 -0.2258819341659546 0.43478918075561523 -0.03225252777338028 0.13522464036941528 -0.40520018339157104 0.4787188768386841 0.3452598750591278 -0.32627183198928833 -0.4508173167705536 -0.3182356357574463 0.49153977632522583 0.07380803674459457 -0.15903279185295105 -0.13163156807422638 0.2843850553035736 0.5326425433158875 0.7679816484451294 -0.11140897125005722 0.002786621917039156 0.4352271854877472 0.205344095826149 0.3239648640155792 0.0825384333729744 -0.3245401382446289 0.32397180795669556 0.38748788833618164 0.051738034933805466 0.46380460262298584 -0.831552267074585 -0.003047606907784939
schrei 3.028417268069461e-07 1.160647389042424e-05 -0.0002064728323603049 0.0008785452810116112 -0.001009977888315916 0.007476452272385359 -0.0004871913406532258 -0.1635553538799286 -0.5396485924720764 0.054555751383304596 0.70426344871521 -0.019189102575182915 -0.41468098759651184 0.7592025995254517 -0.22745297849178314 0.9302595257759094 0.10902053862810135 -0.6733130216598511 -0.04438082128763199 -0.32905030250549316 0.552578866481781 0.8695220947265625 0.239920973777771 -0.7276148796081543 -0.1779230386018753 0.15217843651771545 0.20720936357975006 -0.29401513934135437 -0.22958870232105255 -0.10239589959383011 0.19755391776561737 0.37675410509109497 -0.3096092939376831 0.2767089009284973 -0.459760844707489 -0.12259695678949356 0.2549091875553131 0.29446524381637573 -0.15794435143470764 -0.09833641350269318 -0.16348448395729065 0.06899485737085342 0.25971055030822754 0.17547793686389923 0.556389331817627 0.3201998472213745 -0.28770381212234497 0.013390828855335712 -0.3667740225791931 -0.2654879093170166
mais 2.863692145638197e-07 -1.450786930945469e-05 -0.00034710075124166906 0.0016823085024952888 -0.004743699915707111 0.0026803542859852314 -0.0074753123335540295 0.6168316006660461 0.8563527464866638 1.2633945941925049 -0.33167213201522827 0.012527528218925 0.08279720693826675 0.501608669757843 -0.477837473154068 0.3551504611968994 -0.2375047355890274 0.1438595950603485 0.2672010660171509 -0.3968687653541565 -0.7429339289665222 0.4470922648906708 -0.43784183263778687 -0.582091748714447 -0.5614942312240601 0.07311706990003586 -0.3611527979373932 0.2469426840543747 -0.06258179992437363 -0.3732910454273224 -0.4114358425140381 0.6780077219009399 -0.31236788630485535 0.10057784616947174 -0.0014522139681503177 0.5603547692298889 0.02802393212914467 -0.16470935940742493 -0.5945142507553101 0.16681815683841705 0.15758265554904938 0.48651862144470215 0.6556128859519958 0.23951900005340576 -0.920665979385376 -0.4812708795070648 -0.29388508200645447 0.09485138207674026 -0.36237674951553345 -0.30607137084007263
weiß 4.514593570092984e-07 3.3071584766730666e-05 0.00033043487928807735 -0.0008383584790863097 -0.008444246836006641 0.0007253300864249468 -0.0007455210434272885 0.2021646648645401 0.6474489569664001 0.7268321514129639 0.8606243133544922 -0.6194719076156616 0.19498150050640106 0.9098111391067505 -1.249260425567627 0.5277730226516724 0.2558620870113373 0.8807041645050049 -0.037892404943704605 0.44570377469062805 1.0373601913452148 0.7943150401115417 0.029972068965435028 0.6965234279632568 0.30351850390434265 1.1250579357147217 0.5989156365394592 -0.5322652459144592 -0.30244532227516174 -0.5428489446640015 0.3720465302467346 0.09319237619638443 0.3209409713745117 0.041589535772800446 0.3823835551738739 -0.554191529750824 0.2824573218822479 1.1258254051208496 -0.4042072296142578 0.27037039399147034 0.07137630134820938 0.6999868750572205 -0.00916884746402502 -0.15492524206638336 -0.38780033588409424 0.6183979511260986 0.18200594186782837 -0.4939669966697693 -0.3904889225959778 -0.8079555034637451
anzüge 2.5861808694571664e-07 -6.204837700352073e-05 0.0002972960064653307 0.0010694394586607814 -0.0028222810942679644 -0.0015290668234229088 -0.0019284586887806654 -0.3787216246128082 0.09946709126234055 0.2064778059720993 -0.4248175024986267 -0.4584542512893677 -0.5171090364456177 -0.44187647104263306 -0.44074296951293945 -0.31196776032447815 -0.056697405874729156 0.057353902608156204 -0.24786870181560516 -0.8175133466720581 -0.35611143708229065 -0.3809613287448883 -0.03520230948925018 0.2831186354160309 0.3267502188682556 0.5958894491195679 -0.004589162766933441 -0.0556783564388752 0.42966601252555847 -0.36251530051231384 0.48592808842658997 -0.3874463438987732 -0.4741128385066986 0.15599101781845093 0.0945192500948906 0.028012864291667938 -0.05021391808986664 0.4687647521495819 -0.4767477214336395 0.03563353046774864 -0.11449358612298965 -0.2780151069164276 -0.1091415211558342 -0.5035291910171509 -0.42351824045181274 0.3295342028141022 0.06608844548463821 -0.2203918844461441 -0.10512922704219818 0.07465885579586029
einzige 4.333686263180425e-07 -3.007450914083165e-06 -0.0003156383754685521 0.0008440764504484832 -0.006972653325647116 -0.009140914306044579 0.006462357938289642 0.9759550094604492 -1.1165297031402588 -0.8642898201942444 0.055219363421201706 -0.12653852999210358 -0.1477404236793518 -0.08919209986925125 -0.003620461793616414 0.0996091291308403 1.1398768424987793 1.2120170593261719 -0.4629906713962555 0.25942087173461914 1.063918948173523 0.40350836515426636 0.2531599998474121 -0.56807941198349 -0.6736124157905579 0.03709026798605919 0.3067258894443512 0.18372386693954468 -0.5702227354049683 -0.6003988981246948 0.04099977761507034 0.3269765079021454 0.13180550932884216 0.14870987832546234 -0.26641952991485596 -0.12959067523479462 0.8158864974975586 0.4969245195388794 -0.13446016609668732 0.22860848903656006 0.38686081767082214 -0.12622004747390747 1.2048174142837524 -0.10120325535535812 -0.1599167138338089 0.12883637845516205 -0.45041072368621826 -0.6293237209320068 0.26178446412086487 0.014449219219386578
daten 4.6094129402263206e-07 -9.591343768988736e-06 -0.0006894117686897516 0.0017028080765157938 0.0013921880163252354 -0.008518976159393787 -0.0001095362677006051 1.4398587942123413 0.6561230421066284 0.18530751764774323 0.7433221936225891 -0.3956601321697235 1.9024837017059326 -0.3492288589477539 0.8988340497016907 0.7312043905258179 0.6954914927482605 1.2081784009933472 0.40915268659591675 0.5634949803352356 0.4894263446331024 -0.03709062933921814 0.0315602645277977 0.5166006684303284 -0.30450740456581116 -0.269648939371109 -0.19712771475315094 0.5839588046073914 -0.0019241186091676354 0.07977735996246338 -0.5158531665802002 -0.007379158399999142 0.23685789108276367 0.2775425910949707 -0.4485834538936615 0.29731911420822144 0.6837649941444397 0.1508483588695526 0.21841435134410858 -0.14011088013648987 0.20092545449733734 -0.14122094213962555 -0.7011346817016602 0.2595829963684082 0.39653950929641724 -0.13600027561187744 -0.7291831970214844 0.3209623694419861 -0.1728532463312149 0.45360228419303894
warten 3.079515522586007e-07 -1.531385896669235e-05 0.00020361784845590591 6.037809725967236e-05 -0.0020214226096868515 0.005399615969508886 -0.003005793783813715 0.8098199963569641 0.3213386833667755 -0.36956608295440674 1.1514666080474854 0.03175506740808487 -0.37126684188842773 -0.036676689982414246 -0.22705820202827454 0.9919145107269287 0.8460712432861328 -0.13537265360355377 0.2494778335094452 -0.5821082592010498 0.039434559643268585 0.31032794713974 -0.3155941367149353 -0.10688138753175735 -0.6681056618690491 -0.2207118719816208 0.08721456676721573 -0.4013056755065918 0.11819733679294586 -0.509877622127533 0.2886066138744354 -0.44844919443130493 -0.14019401371479034 0.16352176666259766 -0.48937466740608215 -0.27045753598213196 0.2986569404602051 -0.4121468961238861 -0.2924352288246155 0.1774318665266037 -0.7113856077194214 0.053024422377347946 -0.04693420231342316 -0.07194317132234573 -0.2588028013706207 -0.15012508630752563 0.4758903682231903 0.05383982136845589 0.06605973094701767 -0.011277523823082447
volt 2.717318068334862e-07 -7.5748039307654835e-06 -0.00037791463546454906 0.002068482805043459 -0.0026495514903217554 0.0008024537237361073 -0.0037851701490581036 0.47573935985565186 0.059249717742204666 -0.016360418871045113 1.1102596521377563 -1.4204915761947632 0.20827142894268036 -0.2730987071990967 0.463268905878067 -0.37787947058677673 -0.5857793688774109 0.5431424975395203 0.1493874341249466 0.10230355709791183 0.3281746506690979 -0.4129660129547119 0.14020127058029175 0.2493395358324051 -0.6810113191604614 -0.22039635479450226 -0.35935884714126587 0.19041657447814941 -0.09498856216669083 0.28019556403160095 -0.020148025825619698 -0.2704183757305145 0.04818163067102432 0.9510069489479065 -0.008032368496060371 0.05558551847934723 -0.9033613204956055 -0.21391640603542328 -0.11464386433362961 0.7635034918785095 0.008125358261168003 0.615403950214386 0.3419666588306427 -0.07035267353057861 0.6258652806282043 0.2032526433467865 -0.1796276569366455 -0.01560231763869524 -0.7320085763931274 0.45204463601112366
wild 3.401064532226883e-07 9.092859545489773e-05 0.00017565728921908885 0.002329042414203286 -0.0009178463951684535 -0.0039991894736886024 0.0008941864944063127 -0.3984812796115875 0.777177631855011 -0.13063371181488037 0.5770058035850525 0.15581536293029785 -0.10474152863025665 0.5354374051094055 -0.7876176238059998 0.598181962966919 0.5856857299804688 0.4521377682685852 0.10205784440040588 -0.44112369418144226 -0.5960407257080078 0.6117024421691895 0.27407971024513245 -0.5741863250732422 0.11927883327007294 0.5079126358032227 1.0359067916870117 0.5701261162757874 -1.271027684211731 -0.06657662242650986 -0.7229323983192444 0.0719306468963623 -0.3025290071964264 -0.24649973213672638 -0.345158189535141 -0.16509856283664703 0.48916351795196533 0.5171430110931396 -0.5286881327629089 0.3839203715324402 0.32204991579055786 0.3430236279964447 0.7587620615959167 0.3135468661785126 0.4768420159816742 0.1272546947002411 -0.17233800888061523 -0.41605979204177856 0.07286971062421799 -0.1397848129272461
benutzer 3.4907844792542164e-07 -6.509236118290573e-05 -6.716337520629168e-05 0.0018841404234990478 0.0004323595203459263 0.00032340281177312136 0.0024770840536803007 0.9973036050796509 0.6922110319137573 -0.1731405109167099 0.02696377970278263 -0.28537899255752563 1.2294405698776245 -0.5161364078521729 0.22973908483982086 0.3105817437171936 0.7522950768470764 0.7244158387184143 0.2657002806663513 -0.6777905821800232 0.5708978176116943 -0.17232288420200348 -0.02384983003139496 0.9368389248847961 -0.3410792648792267 -0.04482097178697586 -0.1617843359708786 0.37965765595436096 0.11286907643079758 -0.599665641784668 -0.31230616569519043 0.413228839635849 0.11533542722463608 -0.20665907859802246 0.0755755826830864 -0.1259366273880005 0.31402072310447693 -0.47523465752601624 0.17251917719841003 -0.40352383255958557 -0.5100948214530945 0.24167761206626892 0.24751606583595276 0.20378448069095612 -0.050090283155441284 0.37380024790763855 -0.2064000815153122 -0.18874065577983856 -0.27967584133148193 0.26078593730926514
beschützer 2.8395680828907643e-07 -4.20316428062506e-05 0.0005939646507613361 0.0009966845391318202 0.0032022702507674694 0.002904612338170409 0.00348028726875782 -0.1297929435968399 -0.5566601753234863 0.12804840505123138 -1.0154759883880615 -0.35157525539398193 -0.1237434595823288 0.4935762286186218 -1.0893993377685547 0.2582254111766815 0.3771475851535797 -0.40202444791793823 0.01870313659310341 -1.0225716829299927 0.21192596852779388 0.5760210156440735 -0.42218926548957825 -0.917762279510498 0.6727542281150818 -0.4081135094165802 -0.3599018156528473 -0.2305799126625061 0.07875052839517593 0.2053653448820114 -0.07374131679534912 -0.2855648100376129 -0.035981591790914536 0.2918147146701813 -0.11706262081861496 -0.3607557415962219 0.10098747164011002 0.06200367584824562 0.659733235836029 0.4995001256465912 0.2844749987125397 0.21536865830421448 0.14939218759536743 -0.24555952847003937 0.39102470874786377 -0.2242194414138794 -0.40817397832870483 0.12468438595533371 0.017349671572446823 0.08594869077205658
wellen 3.184350418905524e-07 -4.2669485992519185e-05 -2.8643275072681718e-05 0.0002461181429680437 -0.003534634131938219 0.0006939351442269981 -0.009804874658584595 -0.2400960624217987 0.1448136419057846 0.20414084196090698 1.2416987419128418 -0.379975825548172 0.5223221778869629 0.3272424340248108 0.3526253402233124 0.2097526490688324 0.08506238460540771 -0.1400226205587387 -0.208470419049263 -0.03928958252072334 -0.1835022270679474 -0.31010785698890686 0.6450079679489136 0.20946800708770752 -0.21393810212612152 -0.45784276723861694 0.10865966975688934 0.43150249123573303 -0.2805127799510956 -0.001244975021108985 -0.23190154135227203 0.2034202218055725 -0.3265053927898407 0.1468096226453781 0.7472476363182068 -0.5082456469535828 -0.26702234148979187 0.10887152701616287 -0.37068143486976624 -0.05974907428026199 0.10544335097074509 0.043808333575725555 0.47172296047210693 -0.7358810901641846 0.28102368116378784 -0.002802679780870676 0.39503100514411926 -0.02344270423054695 -0.4594259262084961 -0.5194679498672485
zellen 3.82357711714576e-07 -8.430176239926368e-05 -0.00031750649213790894 0.0014578672125935555 -0.0041675386019051075 -0.0025572043377906084 -0.007983241230249405 -0.34454160928726196 -0.0929352417588234 0.5356189012527466 -0.12308669090270996 -0.4078211188316345 0.915924608707428 0.2474675327539444 -0.43340441584587097 -0.6270861029624939 -0.010045167058706284 0.11590620875358582 -0.07332828640937805 0.5788288116455078 -0.06791547685861588 -0.6506211757659912 -0.668766975402832 0.5998905897140503 -0.23118959367275238 -0.4150293171405792 0.6985644698143005 0.9724429845809937 -0.6095675230026245 -0.8604303002357483 0.1917228102684021 0.0005891610053367913 -0.7316989898681641 0.035027824342250824 0.33171597123146057 0.19584143161773682 -0.08147454261779785 -0.16504958271980286 0.7278115749359131 -0.6330333948135376 0.7454498410224915 0.4735865294933319 0.02362654358148575 -0.30338457226753235 -0.15009215474128723 0.7285732626914978 0.6486450433731079 0.23189079761505127 -0.7069283127784729 0.17854781448841095
dichter 3.918163145044673e-07 8.186647755792364e-05 0.0018569426611065865 -5.478292951011099e-05 0.0022178746294230223 0.0025978866033256054 -0.0043457369320094585 0.942695677280426 -0.12066485732793808 0.45116621255874634 -0.31162533164024353 -0.09122215956449509 -0.35369881987571716 0.8520087599754333 0.2180219143629074 -0.1422853022813797 0.9307288527488708 -0.5907415747642517 -1.225068211555481 0.0848194882273674 0.46236923336982727 0.19027261435985565 -0.7603009939193726 -0.2347661703824997 -0.043936073780059814 0.28795960545539856 -0.6980449557304382 0.7191663980484009 -0.19965097308158875 0.24259454011917114 0.4200149178504944 1.214471459388733 -0.22013656795024872 -0.9679179191589355 0.17525126039981842 -0.6036013960838318 0.3298500180244446 -0.5155377984046936 0.2990565896034241 0.49845996499061584 0.5580796599388123 0.5575774908065796 0.8750545978546143 0.3135090470314026 0.4480370283126831 -0.23000706732273102 1.182313084602356 -1.6577068567276 0.5019765496253967 -0.17334748804569244
lichter 2.9607483043037064e-07 -1.417403564119013e-05 0.00035491364542394876 -0.0004986546700820327 -0.004737015347927809 0.00017742732597980648 -0.0012331827310845256 -0.26140522956848145 0.19426630437374115 0.2819914221763611 0.9481139779090881 -0.4225705862045288 -0.5475712418556213 0.4245745837688446 0.2666615843772888 0.45659732818603516 0.7631598114967346 0.0658654198050499 -0.8412523865699768 -0.4234819710254669 0.257207989692688 0.45592164993286133 0.10358905047178268 0.0842171460390091 -0.5072401165962219 0.49906060099601746 0.24527567625045776 -0.15937159955501556 -0.402741014957428 -0.015963245183229446 -0.41143396496772766 0.17313072085380554 0.24060797691345215 0.24775730073451996 -0.1834683120250702 -0.2961583435535431 -0.1830022782087326 -0.21253786981105804 0.08237434923648834 0.10218854248523712 0.02308148518204689 0.3368687629699707 -0.05201837792992592 0.13137191534042358 0.4715416729450226 -0.5535690784454346 0.6771581768989563 -0.7239131927490234 -0.07341904193162918 -0.2827571630477905
berg 4.4150266376163927e-07 9.333940397482365e-05 -0.0004156286595389247 -0.0019165660487487912 -0.0017031949246302247 0.0016106347320601344 -0.004536767490208149 -0.02090436778962612 0.1687714159488678 -0.13926513493061066 0.5357369780540466 -0.30473536252975464 0.31654834747314453 1.3429466485977173 -0.09922999888658524 1.385804295539856 1.3962810039520264 0.28929203748703003 0.22149737179279327 -0.21256442368030548 0.2592610716819763 -0.27403920888900757 0.8887535929679871 -0.9286361932754517 -0.21634718775749207 0.04942410811781883 -0.19898712635040283 1.5411208868026733 -0.12439130991697311 0.7515550851821899 -0.4512171149253845 0.45150667428970337 0.07023370265960693 -0.05972714722156525 0.13186581432819366 0.6220235228538513 0.28109365701675415 0.24815115332603455 -0.6108797788619995 -0.11672608554363251 0.5918652415275574 -0.6627019047737122 1.3050832748413086 -0.7580230236053467 -0.48492345213890076 -0.5519189238548279 0.8983823657035828 -0.2996177077293396 -0.1439492404460907 0.3276456296443939
wert 4.774732929035963e-07 -5.3098832722753286e-05 0.00015796248044352978 0.0015622833743691444 -0.0013540458166971803 0.003514236304908991 0.0025929908733814955 1.2191942930221558 0.1572611927986145 -0.13274089992046356 0.8326321840286255 -0.44429564476013184 1.8201920986175537 0.1545962244272232 -0.26846110820770264 0.6755261421203613 0.11240961402654648 0.9780600070953369 0.2741124629974365 0.30330899357795715 0.5215948224067688 0.8437484502792358 0.4708770215511322 0.01700122281908989 -0.5423397421836853 0.2785629332065582 -0.7007578015327454 0.6381624341011047 -0.5493007302284241 0.5477063059806824 0.029845334589481354 0.07378175854682922 0.09224198758602142 0.07005400955677032 -0.10393626987934113 0.8567808866500854 -0.27828457951545715 0.122909776866436 0.17566274106502533 0.8766632676124573 0.2732103168964386 -0.2831238806247711 -0.060435064136981964 0.673766553401947 0.29907137155532837 -0.26477983593940735 -0.6270737051963806 0.7152239680290222 -0.6887009143829346 -0.20852266252040863
würzen 2.2547739320089022e-07 -3.32562776748091e-05 0.0004791755636688322 -0.00021154072601348162 -0.0028366714250296354 0.003600112395361066 -0.002467177342623472 -0.13021647930145264 0.3934689164161682 0.29033055901527405 -0.14578188955783844 0.29809433221817017 0.43358051776885986 -0.48180100321769714 -0.15370634198188782 0.11966384202241898 -0.3697153925895691 0.4685862362384796 0.4393868148326874 -0.366616815328598 -0.8455327153205872 0.3233252763748169 -1.2368243932724 -0.20105096697807312 0.514283299446106 0.228627547621727 0.17867138981819153 -0.7071101069450378 0.474325567483902 0.2988813519477844 -0.03494970500469208 0.3806760609149933 -0.17242416739463806 -0.6213073134422302 0.007262870669364929 -0.41942599415779114 0.5883756279945374 0.1236114501953125 -0.09043914824724197 0.5285738706588745 -0.5940272212028503 -0.14870792627334595 -0.17348982393741608 -0.3361039459705353 -0.40143585205078125 -0.212881401181221 -0.1865713894367218 0.3537062406539917 0.3636798560619354 -0.2861195504665375
kürzen 3.0933574635128025e-07 -5.77897226321511e-05 0.000130996442749165 0.0006034771795384586 -0.0007919868803583086 0.0026703299954533577 -0.001957799308001995 0.6258684992790222 0.21894696354866028 0.1297100931406021 0.5661925077438354 0.0907585620880127 0.07012613862752914 0.0884205773472786 -0.35996243357658386 0.2762855887413025 -0.002224062569439411 0.41496989130973816 -0.4285147786140442 -0.10888171195983887 0.34086960554122925 -0.2251555621623993 -0.15248911082744598 0.36346861720085144 -0.37708592414855957 0.01101023331284523 -0.17065732181072235 -0.18374086916446686 -0.058408934623003006 -0.07366897165775299 -0.4763908386230469 -0.339741975069046 0.05420320853590965 -0.002029543276876211 0.1586458832025528 0.3839576244354248 0.01635519042611122 -0.19879961013793945 -0.3938547372817993 0.1985032856464386 -0.4071384370326996 -0.3509047329425812 -0.4813717305660248 0.12388253957033157 0.3109992444515228 0.0942489355802536 0.5745609998703003 0.5826132893562317 -0.10943644493818283 -0.13243603706359863
feld 3.935634538265731e-07 7.346862958002021e-07 -0.0003901047457475215 -0.0010142663959413767 -0.003714188700541854 0.01076314877718687 0.0019263263093307614 -0.0949472188949585 0.5348944664001465 0.3163643181324005 1.1313639879226685 -0.47927919030189514 0.2218332439661026 0.3900541067123413 -0.31424471735954285 0.13686004281044006 1.1150572299957275 0.8514568209648132 0.05984878912568092 0.23554794490337372 0.520194947719574 0.014232436195015907 0.4446451663970947 -0.12415750324726105 -0.7150669693946838 0.027576977387070656 0.3997533321380615 0.8731997609138489 -0.32145947217941284 0.13937455415725708 0.1467539668083191 0.2869395315647125 -0.3361402451992035 -0.6605594158172607 0.7709663510322571 -0.16953496634960175 -0.12123117595911026 0.14152196049690247 -0.23682162165641785 -0.048792317509651184 0.121307872235775 0.3936850428581238 -0.11547575145959854 -0.4920165538787842 -0.1565500944852829 0.2583922743797302 0.5580828189849854 -0.559389054775238 0.09931404143571854 -0.22105790674686432
geld 4.0891040953283664e-07 -2.325940295122564e-05 0.0008729966939426959 0.001900148461572826 -0.0027843446005135775 0.005671842489391565 0.003967971075326204 1.3490146398544312 0.7249214053153992 -0.5463679432868958 0.8147150874137878 0.3003988564014435 -0.6777657866477966 -0.03570420667529106 -0.870731770992279 0.7503247857093811 0.20803287625312805 0.4556352198123932 0.7709280252456665 -0.4966537356376648 0.6242598295211792 0.2683423161506653 0.7280786037445068 -0.3007332682609558 -0.7932320237159729 -0.0657636895775795 0.06887226551771164 0.46142324805259705 -0.13727831840515137 -0.7282673716545105 0.1289072036743164 -0.07553085684776306 0.19236953556537628 -0.2627148926258087 -0.7136510610580444 0.6233171224594116 0.5805311799049377 -0.12292227149009705 -0.18312810361385345 1.086354374885559 -0.41726574301719666 0.5056087374687195 -0.01949143223464489 0.7107951641082764 -0.2763330936431885 -0.3025053143501282 -0.6460370421409607 0.2157149612903595 0.10933642834424973 0.4757673442363739
stiefel 2.802700009851833e-07 2.265768671350088e-05 0.0005673690466210246 -5.352071821107529e-05 -0.004490234423428774 0.0026646277401596308 0.002321501960977912 -0.8186330795288086 0.11092010140419006 0.8416635990142822 0.17114506661891937 -0.4741586744785309 -0.4371989071369171 0.24538883566856384 -0.0581321120262146 0.3984874486923218 0.053508348762989044 -0.0695357397198677 -0.316034197807312 -0.5326997637748718 0.18314391374588013 0.14975114166736603 0.22636325657367706 0.38141578435897827 -0.26082924008369446 0.025496315211057663 0.14684903621673584 0.5576616525650024 -0.08347511291503906 0.10737620294094086 0.6487995386123657 -0.3445775806903839 -0.37789857387542725 0.01412444468587637 -0.08364109694957733 0.4265154004096985 0.5797483921051025 0.18388855457305908 -0.18192966282367706 0.29344794154167175 -0.15548183023929596 -0.0680936872959137 -0.09307480603456497 -0.38604435324668884 -0.10595092922449112 -0.16260090470314026 -0.07661335170269012 -0.1090308427810669 -0.2506181299686432 0.11614155769348145
staffel 4.7091654664654925e-07 8.454712951788679e-05 0.00018202992214355618 0.0009836512617766857 -0.0002727582468651235 -0.01366378366947174 -0.004365006927400827 0.8033161163330078 0.1460665613412857 -0.4768233895301819 1.2578140497207642 -1.2706365585327148 -0.3064281940460205 0.67805415391922 0.05079894885420799 0.8464210033416748 -0.06705250591039658 0.9005129933357239 -0.02759552374482155 0.29824405908584595 0.4445357322692871 0.18519145250320435 -0.14992006123065948 -1.365388035774231 -0.48659825325012207 0.9335221648216248 0.7207663059234619 -0.027965281158685684 0.026545081287622452 -0.06749972701072693 -0.29026469588279724 -0.6226387619972229 0.3391365110874176 -0.5431766510009766 -0.09425655752420425 -0.34774819016456604 0.06996403634548187 0.8680781722068787 0.080693818628788 0.2766807973384857 -0.44038113951683044 0.808801531791687 0.1764499992132187 -1.5691230297088623 0.7849125266075134 0.6548174619674683 0.13373114168643951 0.05543781444430351 -0.11337742209434509 -0.16251544654369354
pixel 2.864324812890118e-07 -2.1449619453051127e-05 -0.0010394874261692166 0.001660949899815023 -0.0021031901706010103 0.003873753361403942 -0.002617656020447612 -0.039363957941532135 0.5582543611526489 0.42280739545822144 0.6300115585327148 -0.4790489971637726 1.0063108205795288 -0.18541766703128815 0.21391722559928894 0.2342691719532013 -0.12070975452661514 0.8109033703804016 -0.7041335701942444 0.1646563857793808 0.4923774003982544 0.4072122275829315 0.2925390601158142 0.7878004312515259 0.004008754622191191 0.35799407958984375 -0.2628119885921478 -0.18915480375289917 -0.6413514614105225 -0.21540075540542603 -0.3029997646808624 -0.028114400804042816 0.011947695165872574 0.32009461522102356 0.05348207429051399 0.21468424797058105 -0.09713747352361679 -0.39270564913749695 0.40721195936203003 0.4901227355003357 -0.3471188247203827 0.06985124200582504 0.09251544624567032 0.0633951723575592 0.08034301549196243 0.5716611742973328 0.9466197490692139 -0.22145839035511017 -0.5447245836257935 -0.23776943981647491
spitzel 2.5232509415218374e-07 1.2218998563184869e-05 0.0007532100426033139 0.0012158892350271344 0.001049780286848545 -0.0013251709751784801 0.0023030813317745924 0.16410258412361145 0.2922651767730713 0.31398192048072815 -0.17369869351387024 -0.04961622878909111 -0.18951132893562317 0.16002246737480164 -0.4402010142803192 -0.0037403632886707783 0.2606804668903351 -0.576988697052002 0.2274027019739151 -0.6825910210609436 0.44661945104599 0.10429456830024719 0.24210640788078308 -0.07083799690008163 -0.022519541904330254 0.10734052211046219 0.210066556930542 -0.009940608404576778 0.3101765215396881 -0.3790200352668762 -0.23325452208518982 -0.25445806980133057 -0.06596681475639343 -0.10079320520162582 -0.3070836365222931 0.04791637510061264 -0.16510649025440216 -0.36853837966918945 0.4995221793651581 -0.21744000911712646 0.2769828736782074 0.020393146201968193 -0.19501446187496185 -0.000253881182288751 0.07935162633657455 0.3598885238170624 0.31066790223121643 -0.26910683512687683 -0.5158187747001648 0.06166725233197212
justiz 3.8575905136895017e-07 3.616767207859084e-05 0.0009858171688392758 -0.0008265526848845184 0.0014712741831317544 -0.007373935077339411 0.012184932827949524 1.2876508235931396 0.5213858485221863 0.11185114830732346 0.24556128680706024 -0.5049067735671997 0.21607758104801178 0.24164503812789917 0.0751597136259079 0.2286226898431778 -0.0067680710926651955 0.8218084573745728 0.45363950729370117 -0.010598568245768547 0.1972992718219757 -0.27031007409095764 -0.07745237648487091 0.03063417412340641 1.0557224750518799 -1.1368613243103027 0.547561526298523 0.6446622610092163 1.00520658493042 -0.5621967315673828 0.07586650550365448 0.9437924027442932 0.11559109389781952 0.05513383075594902 -0.1840183138847351 -0.06987634301185608 0.48548611998558044 0.3971462547779083 0.29484274983406067 -0.16752247512340546 -0.37613025307655334 -0.07059331983327866 0.6189138889312744 0.2914608418941498 0.5805702805519104 0.2886366844177246 -0.5919480919837952 -0.2686576247215271 -0.47856953740119934 -0.27292948961257935
notiz 2.9090605835335737e-07 3.0373198569577653e-06 -1.6015874280128628e-05 0.0006247891578823328 0.00047052325680851936 -0.000252178666414693 0.004454019479453564 0.824878454208374 -0.3396648168563843 0.08949201554059982 0.6334227323532104 0.2870996594429016 0.42516228556632996 -0.6032077670097351 0.20308765769004822 0.5925116539001465 0.30559197068214417 0.34278395771980286 -0.3555213212966919 -0.21945349872112274 0.6786460876464844 -0.0771671012043953 0.35463106632232666 0.7722567319869995 -0.8323754668235779 0.4711818993091583 -0.07688681036233902 0.015114604495465755 0.15052366256713867 0.028067974373698235 0.15860280394554138 0.47611281275749207 0.28374481201171875 -0.5785275101661682 -0.1250511258840561 -0.20058858394622803 0.40534335374832153 0.13592950999736786 -0.30109450221061707 -0.506087064743042 0.06893686950206757 0.2832068204879761 -0.23377513885498047 0.4232581555843353 -0.35157662630081177 0.24491825699806213 -0.38330692052841187 -0.6314904689788818 -0.060879386961460114 0.0763203427195549
topf 2.972862773731322e-07 -2.9695405828533694e-05 -8.643311048217583e-06 -3.8897607737453654e-05 -0.002703191712498665 0.0033591247629374266 0.0013028293615207076 -0.09810516238212585 0.4148198366165161 0.4983746409416199 -0.2924789488315582 -1.3124842643737793 -0.650824785232544 0.4852396249771118 0.24311025440692902 0.11075776815414429 0.05034128949046135 0.1817820966243744 -0.4056575298309326 0.5077314972877502 -0.3006812334060669 0.10884441435337067 1.2800319194793701 -0.2651216983795166 -0.5564568042755127 -0.09191938489675522 0.4922543168067932 -0.5494080185890198 -0.7541853785514832 -0.30274778604507446 0.399197518825531 -0.16721203923225403 -0.5513766407966614 -0.7448858618736267 -0.6763677000999451 0.2811362147331238 0.6131407618522644 0.1577945053577423 -0.02267293632030487 0.3148191273212433 -0.011641416698694229 -0.3051612079143524 -0.21779830753803253 -0.1646997630596161 -0.11531025916337967 -0.44350433349609375 -0.013726585544645786 0.3673694431781769 -0.3748125731945038 -0.39512112736701965
kopf 4.5339865550886316e-07 -1.122598405345343e-05 0.000106742991192732 0.0004622061678674072 -0.002641130704432726 0.013062036596238613 -0.00655733235180378 -0.12721052765846252 -0.14401689171791077 0.5324922800064087 1.1408241987228394 -0.47638431191444397 0.07377505302429199 1.063666582107544 -0.23929424583911896 0.9902345538139343 0.7524496912956238 0.6503547430038452 -1.0796033143997192 -0.09421361982822418 1.011228084564209 0.7513527274131775 0.7056015133857727 0.04862502962350845 0.1679537296295166 0.08043452352285385 -0.23941536247730255 -0.02352157048881054 0.2844468355178833 -0.5201796889305115 -0.029724394902586937 -0.2661401629447937 0.035660818219184875 0.35886019468307495 0.15327313542366028 0.4552477300167084 0.8829954266548157 1.0736045837402344 0.3402327299118042 0.5521284937858582 0.14578714966773987 0.49143266677856445 0.6930524110794067 0.8744646310806274 -0.2545900344848633 0.5505478978157043 -0.13753823935985565 0.2205120325088501 0.179744154214859 0.24414317309856415
pflaume 2.46289715732928e-07 4.907348920824006e-05 0.0005525618325918913 -8.235303539549932e-05 -0.006714389193803072 0.0011946349404752254 0.0025383641477674246 -0.48876965045928955 -0.6207992434501648 0.6774682402610779 -0.21875137090682983 -0.6893877387046814 -0.16399425268173218 0.06770475208759308 -0.441178560256958 -0.11588848382234573 0.457292765378952 -0.16343024373054504 -0.18840141594409943 -0.19045887887477875 -0.3782503008842468 0.24513058364391327 -0.1947425752878189 -0.11736245453357697 -0.41429170966148376 0.6078639030456543 -0.33930495381355286 0.05303437262773514 -0.4529026746749878 -0.5308416485786438 0.30421051383018494 0.4584015905857086 0.310344398021698 0.10617677122354507 0.509047269821167 0.2513369917869568 0.21853530406951904 0.024439936503767967 0.13724471628665924 -0.36647045612335205 0.08731642365455627 0.5115986466407776 -0.2252708375453949 0.6649919748306274 -0.4898388683795929 -0.3271183967590332 0.29124128818511963 0.07500550150871277 0.13924254477024078 -0.12457011640071869
braune 3.391710947653337e-07 7.906804967205971e-06 0.0005937727983109653 0.0009250912116840482 -0.009705222211778164 -0.005578737240284681 0.002422954887151718 -0.8484694957733154 -0.18264241516590118 1.3835502862930298 0.4356924593448639 -0.47422870993614197 -0.1611330658197403 0.9280004501342773 -0.5520978569984436 -0.23310692608356476 0.7340646386146545 0.34592488408088684 -0.7719776630401611 0.25585347414016724 -0.005060101859271526 -0.17383190989494324 0.4197550117969513 0.956108033657074 -0.22228316962718964 0.6712726950645447 0.571193516254425 0.13500867784023285 0.2083418071269989 -0.5024469494819641 -0.15951812267303467 0.11904153227806091 -0.687673032283783 0.2388438880443573 0.6041274666786194 0.04239828512072563 0.7476268410682678 -0.07158815860748291 0.6530967950820923 0.04103657975792885 0.16832715272903442 1.1080752611160278 -0.2553275227546692 0.3646033704280853 -0.058131467550992966 0.2176002711057663 0.025319643318653107 0.25811755657196045 0.18102043867111206 -0.5695001482963562
olive 2.519668385048135e-07 8.833325409796089e-05 -0.00021194643341004848 0.002633443335071206 -0.002872876590117812 -0.002826784970238805 -0.005543537903577089 -0.6453990340232849 -0.8565686941146851 -0.15060465037822723 0.48291224241256714 0.619060754776001 -0.31992414593696594 0.6495124697685242 0.16870737075805664 -0.4965271055698395 -0.2971319556236267 0.5243220925331116 0.37392720580101013 -0.4515020251274109 -0.16505751013755798 -0.07304917275905609 -0.21396218240261078 0.41649797558784485 0.18989743292331696 0.22010375559329987 0.6404970288276672 0.2969156801700592 -0.12553474307060242 -0.036723583936691284 -0.05680359527468681 -0.09540016204118729 -0.1473619043827057 -0.1562245786190033 0.44051119685173035 0.12051136791706085 0.93790203332901 0.0845935046672821 -0.17189131677150726 0.3292892277240753 -0.09540510922670364 0.285139262676239 -0.23622144758701324 -0.1972828507423401 0.09780024737119675 0.057205814868211746 0.0158739872276783 -0.14069713652133942 -0.14046445488929749 -0.5398755669593811
motive 3.641727630565583e-07 -4.566764255287126e-05 0.0003929495869670063 0.001320714713074267 -0.0024758586660027504 -0.010196720249950886 0.004528038669377565 -0.2971831262111664 0.30158868432044983 0.17565622925758362 0.06056215614080429 0.6641234159469604 0.009768038988113403 -0.236819326877594 0.19596122205257416 0.5536918640136719 0.9910804629325867 -0.2645077407360077 -0.816344141960144 0.3753933310508728 0.3805800974369049 0.32528042793273926 -0.33634820580482483 -0.6844850778579712 0.8356055021286011 0.25883060693740845 -0.3832930624485016 0.18960899114608765 -0.4928036034107208 -0.23516897857189178 0.06354900449514389 0.29778262972831726 -0.4534388482570648 0.013632887974381447 0.23375988006591797 -0.32275131344795227 0.4586919844150543 0.6610874533653259 -0.9163174629211426 0.3426209092140198 -0.46627676486968994 0.23057441413402557 -0.10657637566328049 0.20531390607357025 0.1014837771654129 0.15982837975025177 0.008587796241044998 0.26597511768341064 -0.28740638494491577 0.3268562853336334
schmuck 3.3286872280768875e-07 -2.3407466869684868e-05 0.0006957990117371082 0.0003514640557114035 -0.005618684459477663 0.0011024666018784046 0.0004339602601248771 -0.7312342524528503 0.4996550977230072 0.711766242980957 -0.07734638452529907 0.19758670032024384 -0.2545088231563568 -0.48577022552490234 0.22768470644950867 0.4258079528808594 -0.3044333755970001 0.6222001910209656 -0.317464143037796 -0.009330112487077713 -0.18839342892169952 0.8965254426002502 -0.18833862245082855 0.07970336824655533 0.20725417137145996 0.22575369477272034 0.16014635562896729 0.13013336062431335 -0.264314740896225 -0.38937076926231384 0.6073957681655884 0.05312943458557129 0.19636619091033936 -0.6236836910247803 -0.5890187621116638 0.23719532787799835 0.28860923647880554 0.19992944598197937 -0.8784252405166626 0.6107185482978821 0.03664014860987663 0.02861899882555008 0.5604804158210754 0.3753628134727478 -0.5346060991287231 -0.03771891072392464 -0.8109395503997803 0.617385983467102 -0.23954451084136963 0.11420097947120667
schluck 2.3400569659770554e-07 2.029595179919852e-06 0.0006132982089184225 0.0003149610129185021 0.0002735175075940788 0.008443922735750675 0.002673017792403698 -0.49371927976608276 0.19679293036460876 1.1281707286834717 0.12629327178001404 -0.23362848162651062 0.2523801028728485 0.35990649461746216 -0.260437548160553 -0.3808971047401428 -0.5369871854782104 -0.487718403339386 0.2706378698348999 -0.6053957939147949 -0.323104590177536 0.31492725014686584 0.2281733751296997 0.16242840886116028 -0.27886953949928284 -0.2584932744503021 0.1198178231716156 -1.0508220195770264 -0.28470754623413086 -0.4036063849925995 0.02193557471036911 0.39367079734802246 0.40646669268608093 -0.4180338680744171 -0.09560397267341614 0.19912193715572357 0.20672206580638885 -0.13755321502685547 -0.12361299246549606 -0.18214775621891022 -0.0689786747097969 -0.09780190140008926 -0.19579610228538513 0.15181201696395874 0.7299772500991821 0.05312410369515419 -0.4749102294445038 0.3560978174209595 0.02723362110555172 -0.40579190850257874
kopftuch 2.520620796531148e-07 -4.159360469202511e-05 -0.00012801297998521477 0.0006712212925776839 -0.00709117203950882 0.011612115427851677 0.0011025212006643414 -0.051843348890542984 -0.3274334967136383 0.057144153863191605 0.32914841175079346 0.03150101378560066 -1.1209534406661987 0.3666718602180481 -0.14364631474018097 0.9547925591468811 -0.24672368168830872 0.5371624827384949 -0.09392470121383667 -0.21290592849254608 0.25917625427246094 0.36183544993400574 0.1967664510011673 0.15964184701442719 0.5102978348731995 -0.632365345954895 -0.0934792309999466 -0.08605113625526428 1.0869059562683105 0.07090974599123001 0.6678375601768494 0.21034885942935944 0.013298713602125645 -0.12661990523338318 0.10550268739461899 0.6325303316116333 0.026997148990631104 -0.020655091851949692 0.05693751573562622 0.1804589480161667 0.18441163003444672 0.3577902019023895 0.024493426084518433 0.250193327665329 -0.48228922486305237 -0.15158596634864807 -0.19679144024848938 -0.14621394872665405 -0.3964543342590332 -0.1419500708580017
kochbuch 2.864887846953934e-07 2.4313365429406986e-05 0.00011669801460811868 0.0005852510803379118 -0.003726222552359104 9.291274909628555e-05 0.017945051193237305 -0.1319236010313034 0.14994263648986816 0.23440775275230408 0.14710713922977448 0.8583288192749023 -1.1903843879699707 -0.4509457051753998 0.20779861509799957 0.6334130764007568 -0.6369386911392212 0.4128133952617645 -0.15969619154930115 -0.12327540665864944 0.05703647434711456 0.12560869753360748 -0.03938031941652298 -0.6009937524795532 -0.4515530467033386 0.30209437012672424 0.05462026968598366 0.3590187728404999 0.24556861817836761 0.6449598670005798 -0.5334916710853577 0.10363263636827469 -0.26837995648384094 0.11603803932666779 -0.08790875971317291 0.3601743280887604 0.5769121050834656 -0.19643886387348175 0.4281156063079834 0.007618987467139959 -0.1922532171010971 -0.001976213650777936 0.04876004159450531 0.07722549885511398 0.050175443291664124 -0.2350693941116333 0.13978713750839233 -0.005793537013232708 0.1840869039297104 -0.433959424495697
kette 3.475162486665795e-07 -2.4581187972216867e-05 -0.0005313770961947739 0.00024400567053817213 -0.0015800545224919915 0.0004219749534968287 -0.0020042217802256346 -0.30581122636795044 -0.5861581563949585 0.15671096742153168 1.10576593875885 -0.5940670371055603 0.05890947952866554 0.7964836955070496 0.16321709752082825 -0.14429903030395508 -0.12832461297512054 0.6704986095428467 -0.2615848183631897 0.003173950593918562 0.6012762784957886 -0.27868005633354187 0.9787043929100037 -0.12850835919380188 -0.38606005907058716 -0.5111821889877319 0.3057132661342621 0.6145462989807129 -0.3707951009273529 0.12873533368110657 0.21797774732112885 0.042561475187540054 0.0720682293176651 0.3331519365310669 -0.08475448936223984 0.28012940287590027 0.8125793933868408 0.41371771693229675 0.1390329748392105 0.22070573270320892 0.3445484936237335 -0.0077295382507145405 0.28639882802963257 -0.5399129986763 -0.0571843720972538 -0.04145795851945877 0.35128095746040344 0.3109603524208069 0.04371553659439087 -0.4533984065055847
karte 4.4691731204693497e-07 2.1562169422395527e-05 -0.0009246080880984664 -0.00024196399317588657 0.00014573927910532802 -0.009931087493896484 0.005785402841866016 0.8319600224494934 -0.03957879915833473 0.23974187672138214 0.8030718564987183 0.14823129773139954 1.3155795335769653 -0.11229904741048813 0.09354764223098755 0.9029607772827148 1.4563664197921753 0.6896332502365112 -0.18906474113464355 0.4263809621334076 0.22402676939964294 0.12826037406921387 0.4640294909477234 -0.19090373814105988 -0.3319022059440613 0.48277485370635986 -0.025213677436113358 0.5321546792984009 0.12919719517230988 0.3692574203014374 -0.10905012488365173 -0.016654958948493004 0.9292117953300476 -0.3387300670146942 0.17794762551784515 0.15411585569381714 1.0762763023376465 -0.4414861500263214 -0.18372857570648193 0.443451851606369 -0.16786055266857147 -0.697393536567688 0.5505127906799316 -0.18640324473381042 -0.20699194073677063 -0.6809588670730591 0.06160183995962143 -0.45354798436164856 -0.051382649689912796 -0.2653065025806427
saum 3.599178057811514e-07 -3.593684232328087e-05 0.00019547823467291892 -0.0005349992425180972 -0.002379249781370163 0.008030160330235958 -0.0032294911798089743 -1.0968679189682007 -0.06297311186790466 0.3678034543991089 0.709503710269928 -0.27105894684791565 0.03612729534506798 1.1932685375213623 0.12505477666854858 -0.2114385962486267 -0.44355157017707825 0.3764840364456177 -0.7861409187316895 -0.21564914286136627 0.3263076841831207 0.0161554217338562 0.0837739109992981 1.1198440790176392 0.15942293405532837 0.48904070258140564 0.1977015882730484 -0.145784392952919 0.07610636204481125 0.6140838265419006 0.3241337537765503 0.4382094442844391 -0.1389644294977188 0.16473354399204254 -0.09909749031066895 0.030094463378190994 0.4510122835636139 0.2082042396068573 0.06005086377263069 0.5224195718765259 0.23666657507419586 0.3735269010066986 0.20609430968761444 0.3658791184425354 -0.18240687251091003 -0.16298457980155945 0.9091973900794983 0.3569313585758209 -0.2426629513502121 -0.05646698921918869
schaum 2.856385776794923e-07 9.195800885208882e-06 4.961690501659177e-05 0.0008663139888085425 -0.0033999690786004066 0.00624697795137763 -0.0004598310624714941 -0.48268115520477295 0.235457181930542 0.437272310256958 0.26862359046936035 -0.107764832675457 0.21348173916339874 0.14694809913635254 -0.1484198272228241 -0.2690662443637848 -0.6694970726966858 -0.16785146296024323 -0.15956249833106995 0.35011282563209534 -0.758980929851532 0.20740526914596558 0.3397369384765625 1.0836085081100464 0.0163191556930542 0.007831716910004616 0.11770609766244888 0.2074240893125534 0.286624938249588 -0.3302881419658661 0.2412959635257721 -0.14249663054943085 -0.2646726369857788 -0.2537227272987366 -0.1594163328409195 0.32511594891548157 0.8054348230361938 0.2657184898853302 0.242986798286438 0.45241057872772217 0.25613218545913696 -0.05011202394962311 -0.08921265602111816 -0.18810804188251495 0.30341699719429016 -0.3368043601512909 0.2650994062423706 -0.38923436403274536 -0.475375235080719 -0.24080029129981995
künste 4.054086844007543e-07 8.33803369459929e-06 0.0005801174556836486 -0.0008050345350056887 0.000852576398756355 -0.011870517395436764 0.018521297723054886 0.544901430606842 0.5801935791969299 0.34399476647377014 0.3633238673210144 -0.02002251148223877 -0.5821019411087036 -0.3415086567401886 0.38433486223220825 0.6694244742393494 0.46654632687568665 -0.23215676844120026 -0.046965163201093674 0.28240835666656494 0.5545885562896729 0.8495566844940186 -0.4167906641960144 0.4260779619216919 0.2692854702472687 -0.13888897001743317 -1.0008232593536377 1.0773955583572388 -0.3882090449333191 -0.9145457744598389 1.3232687711715698 0.20869852602481842 -0.28767138719558716 -0.3412291407585144 0.16805346310138702 0.29287606477737427 0.9011731147766113 0.604426920413971 0.01131369173526764 0.952693521976471 0.43213409185409546 0.1843816190958023 0.6495629549026489 0.10985570400953293 0.6942397356033325 0.37084975838661194 0.43110015988349915 0.1032860279083252 -0.10533279925584793 0.5846262574195862
münze 3.363185783200606e-07 8.418404831900261e-06 -0.0005104659940116107 0.0005214387201704085 -0.004324518609791994 -0.0014459628146141768 0.01000919844955206 0.5645603537559509 -0.6389303207397461 -0.16856668889522552 0.014555617235600948 -0.7198031544685364 -0.2522435784339905 -0.8834998607635498 -0.1279907375574112 0.5491775274276733 0.7413206100463867 0.5732966661453247 -0.4878801107406616 0.3326946496963501 0.005847858730703592 0.2236872762441635 0.5768178105354309 0.11585996299982071 -0.4168497920036316 0.3941669166088104 -0.3340766131877899 0.11604557186365128 0.456134557723999 0.2375357300043106 0.28951242566108704 0.05106404423713684 0.4927712380886078 0.17719784379005432 0.3908405900001526 0.5437883734703064 0.03558238223195076 -0.03760616481304169 -0.17203962802886963 1.5465558767318726 -0.2796747386455536 -0.2790555953979492 0.21398456394672394 0.26697027683258057 -0.08129694312810898 -0.12931470572948456 -0.46711379289627075 0.21336016058921814 0.1546604335308075 0.31745895743370056
watt 3.4113713809347246e-07 4.473319131648168e-05 3.002492303494364e-05 0.001900104689411819 -0.001419292064383626 0.0013384150806814432 -0.009100251831114292 -0.004948846064507961 0.010580596514046192 -0.7011180520057678 0.7024990320205688 -0.3186004161834717 0.5579023957252502 0.5621041655540466 0.4793444275856018 -0.5313554406166077 0.01304245088249445 0.5204045176506042 0.42472341656684875 0.2316589057445526 0.8662477731704712 -0.7268063426017761 -0.008483652025461197 -0.28863760828971863 -0.40038371086120605 -0.555292546749115 -0.6178673505783081 0.0014401784865185618 0.5654695630073547 0.2525934875011444 -0.45208483934402466 -0.3835475444793701 -0.37041962146759033 -0.011063716374337673 0.566619873046875 0.2517975866794586 -0.2916453182697296 -0.5945241451263428 -0.011099741794168949 0.3442727029323578 0.33615005016326904 0.48784732818603516 0.5436610579490662 -0.11054179817438126 0.04542525112628937 -0.520512580871582 -0.1285398155450821 -0.2320541888475418 0.08534383028745651 0.5714529752731323
satt 3.3103734153883124e-07 -2.1198064132477157e-05 1.9591612726799212e-05 0.00032862156513147056 -0.004003182519227266 0.004552112426608801 0.0003238511853851378 0.591905415058136 0.6091922521591187 0.21273855865001678 -0.0441444031894207 0.3165803849697113 -0.30495890974998474 0.22060538828372955 -0.5907377004623413 0.49730440974235535 -0.020538639277219772 -0.03286705166101456 -0.10967624932527542 -0.5862414240837097 -0.37715432047843933 0.48405721783638 0.2489815503358841 0.8682546615600586 0.020246092230081558 0.2611093819141388 -0.35753101110458374 -0.8960196375846863 0.19221550226211548 -0.6215059757232666 0.12984415888786316 -0.04479874297976494 0.13087278604507446 0.15372730791568756 0.42079102993011475 -0.5088362693786621 -0.1607285887002945 0.12255772203207016 -0.12450677156448364 -0.1991639882326126 -0.346444308757782 0.45359423756599426 -0.12434134632349014 -0.17357610166072845 -0.15921546518802643 0.08302263170480728 0.3978106379508972 -0.06646130979061127 0.10433898121118546 0.18748559057712555
platine 2.6117768925359997e-07 -4.278057167539373e-05 -0.0008280305191874504 0.0009682356030680239 -0.001627774559892714 0.0015203948132693768 0.0010421611368656158 -0.40099194645881653 -0.15644268691539764 0.7231438755989075 0.4679930508136749 -0.25159141421318054 0.3054903447628021 -0.38159099221229553 0.41195669770240784 -0.4627784192562103 0.3639366030693054 0.6200099587440491 -0.0038439759518951178 -0.030589990317821503 0.5700381994247437 -0.08803798258304596 0.16671650111675262 0.5395601391792297 -0.2635442316532135 0.28340625762939453 0.37481558322906494 -0.015843002125620842 0.14812809228897095 -0.4041372239589691 -0.10881540179252625 -0.16809169948101044 0.5813541412353516 -0.05791058763861656 -0.1078629121184349 0.16448961198329926 0.5298588275909424 -0.3846389651298523 0.34293150901794434 0.6891759634017944 -0.6093960404396057 -0.017675267532467842 0.32920166850090027 -0.29599517583847046 -0.25435182452201843 0.18327085673809052 -0.13300906121730804 0.2573281228542328 -0.47440585494041443 0.4784633219242096
gardine 1.2257993375897058e-07 -2.5498040486127138e-05 -0.0002926922752521932 -0.0003659605572465807 -0.0009119758615270257 0.0044561633840203285 0.004596165381371975 -0.8007916808128357 -0.6528933644294739 0.3994019329547882 0.03081885538995266 -0.16369496285915375 -0.5461376905441284 -0.07432874292135239 0.4472794830799103 -0.21577078104019165 0.18029922246932983 -0.16929328441619873 0.33164092898368835 0.4758644104003906 -0.2226502001285553 0.5688046813011169 0.5595903396606445 0.3170981705188751 -0.1934368908405304 0.45879852771759033 -0.0006138834287412465 0.17173925042152405 -0.42232975363731384 -0.2153259664773941 0.1006949171423912 0.14946255087852478 -0.12639498710632324 -0.1243332177400589 -0.9121286869049072 -0.173115074634552 1.1222028732299805 0.4109804034233093 0.22181884944438934 0.03462887182831764 -0.27883023023605347 0.26299580931663513 0.03167956694960594 0.4369622468948364 -0.6436484456062317 0.035842496901750565 0.2757047414779663 -0.027630306780338287 -0.09214703738689423 0.034331366419792175
